<?xml version="1.0"?>
<opencv_storage>
<opencv_ml_svm>
  <format>3</format>
  <svmType>C_SVC</svmType>
  <kernel>
    <type>RBF</type>
    <gamma>1.</gamma></kernel>
  <C>1.</C>
  <term_criteria><epsilon>1.1920928955078125e-07</epsilon>
    <iterations>1000</iterations></term_criteria>
  <var_count>2</var_count>
  <class_count>2</class_count>
  <class_labels type_id="opencv-matrix">
    <rows>2</rows>
    <cols>1</cols>
    <dt>i</dt>
    <data>
      0 1</data></class_labels>
  <sv_total>1754</sv_total>
  <support_vectors>
    <_>
      1.27639999e+02 1.51132002e+01</_>
    <_>
      1.04003197e+02 5.05159988e+01</_>
    <_>
      1.07061600e+02 2.54372005e+01</_>
    <_>
      1.39399597e+02 1.11812000e+01</_>
    <_>
      1.14294800e+02 3.71003990e+01</_>
    <_>
      1.53205200e+02 7.86439991e+00</_>
    <_>
      1.34335205e+02 1.96812000e+01</_>
    <_>
      1.02136002e+02 1.68619995e+01</_>
    <_>
      9.58048019e+01 2.97131996e+01</_>
    <_>
      1.04982002e+02 3.10548000e+01</_>
    <_>
      1.37241196e+02 1.98428001e+01</_>
    <_>
      1.17474403e+02 3.15492001e+01</_>
    <_>
      1.45338394e+02 1.79456005e+01</_>
    <_>
      1.36166000e+02 1.52203999e+01</_>
    <_>
      1.00768799e+02 1.18204002e+01</_>
    <_>
      1.10344398e+02 2.54011993e+01</_>
    <_>
      1.00924797e+02 1.99827995e+01</_>
    <_>
      1.08672798e+02 1.18571997e+01</_>
    <_>
      1.06122002e+02 1.11020002e+01</_>
    <_>
      1.05716400e+02 1.31264000e+01</_>
    <_>
      1.37145996e+02 1.73223991e+01</_>
    <_>
      1.31121201e+02 1.01728001e+01</_>
    <_>
      1.43412796e+02 1.69004002e+01</_>
    <_>
      1.17127602e+02 1.64048004e+01</_>
    <_>
      9.54076004e+01 1.28923998e+01</_>
    <_>
      1.06546799e+02 2.25627995e+01</_>
    <_>
      1.30194397e+02 3.71696014e+01</_>
    <_>
      1.33333206e+02 1.41183996e+01</_>
    <_>
      8.50268021e+01 1.71623993e+01</_>
    <_>
      1.23297997e+02 2.35804005e+01</_>
    <_>
      1.12421204e+02 5.80312004e+01</_>
    <_>
      1.14797600e+02 5.02351990e+01</_>
    <_>
      8.99151993e+01 2.76327991e+01</_>
    <_>
      6.97371979e+01 2.20328007e+01</_>
    <_>
      3.72095985e+01 3.55211983e+01</_>
    <_>
      8.57259979e+01 2.93271999e+01</_>
    <_>
      8.15148010e+01 2.29515991e+01</_>
    <_>
      8.98000031e+01 1.38176003e+01</_>
    <_>
      9.06704025e+01 1.08171997e+01</_>
    <_>
      6.26615982e+01 2.63603992e+01</_>
    <_>
      4.34063988e+01 2.25779991e+01</_>
    <_>
      5.17047997e+01 2.31152000e+01</_>
    <_>
      6.98992004e+01 1.48808002e+01</_>
    <_>
      3.66412010e+01 3.10860004e+01</_>
    <_>
      1.96331997e+01 4.09000015e+01</_>
    <_>
      2.23551998e+01 3.66128006e+01</_>
    <_>
      2.26711998e+01 4.01888008e+01</_>
    <_>
      2.60428009e+01 2.48731995e+01</_>
    <_>
      2.55344009e+01 3.40876007e+01</_>
    <_>
      1.03766800e+02 9.15559959e+00</_>
    <_>
      9.38883972e+01 8.64560032e+00</_>
    <_>
      7.43552017e+01 5.13280010e+00</_>
    <_>
      5.45351982e+01 2.30104008e+01</_>
    <_>
      8.32404022e+01 5.50640011e+00</_>
    <_>
      5.85656013e+01 1.34647999e+01</_>
    <_>
      2.66483994e+01 2.58756008e+01</_>
    <_>
      2.72371998e+01 2.50487995e+01</_>
    <_>
      3.01040001e+01 2.48523998e+01</_>
    <_>
      2.87632008e+01 2.10412006e+01</_>
    <_>
      2.88040009e+01 1.74864006e+01</_>
    <_>
      2.39235992e+01 2.62199993e+01</_>
    <_>
      2.49743996e+01 2.86648006e+01</_>
    <_>
      9.58280029e+01 1.28563995e+01</_>
    <_>
      7.67556000e+01 1.76180000e+01</_>
    <_>
      8.04823990e+01 2.34923992e+01</_>
    <_>
      4.84091988e+01 2.40827999e+01</_>
    <_>
      7.13588028e+01 1.34516001e+01</_>
    <_>
      5.40908012e+01 1.33803997e+01</_>
    <_>
      5.58555984e+01 6.48799992e+00</_>
    <_>
      6.36780014e+01 6.04239988e+00</_>
    <_>
      4.32723999e+01 1.40291996e+01</_>
    <_>
      3.10296001e+01 1.92019997e+01</_>
    <_>
      3.73968010e+01 1.67619991e+01</_>
    <_>
      3.40152016e+01 1.66256008e+01</_>
    <_>
      2.50464001e+01 1.85543995e+01</_>
    <_>
      2.57483997e+01 1.52931995e+01</_>
    <_>
      2.56972008e+01 3.14176006e+01</_>
    <_>
      2.46284008e+01 2.75779991e+01</_>
    <_>
      3.37267990e+01 2.43747997e+01</_>
    <_>
      3.72159996e+01 2.08152008e+01</_>
    <_>
      3.67512016e+01 1.87908001e+01</_>
    <_>
      3.25908012e+01 1.66152000e+01</_>
    <_>
      2.55291996e+01 1.49932003e+01</_>
    <_>
      3.03127995e+01 1.93355999e+01</_>
    <_>
      3.77779999e+01 1.58915997e+01</_>
    <_>
      3.26055984e+01 1.52952003e+01</_>
    <_>
      1.71208000e+01 2.12616005e+01</_>
    <_>
      3.08476009e+01 1.98523998e+01</_>
    <_>
      2.88943996e+01 1.85895996e+01</_>
    <_>
      2.44783993e+01 3.23699989e+01</_>
    <_>
      3.79407997e+01 1.55799999e+01</_>
    <_>
      1.32643995e+01 2.54032001e+01</_>
    <_>
      1.17676001e+01 3.67896004e+01</_>
    <_>
      1.17936001e+01 2.09288006e+01</_>
    <_>
      1.07939997e+01 2.48719997e+01</_>
    <_>
      9.71840000e+00 3.20131989e+01</_>
    <_>
      1.04871998e+01 3.46384010e+01</_>
    <_>
      1.37623997e+01 2.24664001e+01</_>
    <_>
      1.81863995e+01 2.60816002e+01</_>
    <_>
      1.73920002e+01 2.32931995e+01</_>
    <_>
      1.68059998e+01 2.19496002e+01</_>
    <_>
      2.02852001e+01 2.45296001e+01</_>
    <_>
      1.35059996e+01 2.95832005e+01</_>
    <_>
      1.17419996e+01 3.89543991e+01</_>
    <_>
      2.22019997e+01 2.40452003e+01</_>
    <_>
      2.37956009e+01 2.34808006e+01</_>
    <_>
      2.52900009e+01 2.63351994e+01</_>
    <_>
      1.55167999e+01 2.94039993e+01</_>
    <_>
      1.15011997e+01 3.62683983e+01</_>
    <_>
      3.50732002e+01 2.41980000e+01</_>
    <_>
      1.88383999e+01 2.33899994e+01</_>
    <_>
      2.08519993e+01 2.35459995e+01</_>
    <_>
      2.41023998e+01 2.52591991e+01</_>
    <_>
      2.12220001e+01 2.57707996e+01</_>
    <_>
      1.98700008e+01 2.94456005e+01</_>
    <_>
      1.41647997e+01 3.13756008e+01</_>
    <_>
      3.21987991e+01 2.76320000e+01</_>
    <_>
      2.64123993e+01 2.52511997e+01</_>
    <_>
      2.36744003e+01 2.37840004e+01</_>
    <_>
      2.35076008e+01 2.44204006e+01</_>
    <_>
      2.06348000e+01 2.63836002e+01</_>
    <_>
      1.74692001e+01 2.75291996e+01</_>
    <_>
      1.58439999e+01 2.93423996e+01</_>
    <_>
      2.00548000e+01 3.11627998e+01</_>
    <_>
      1.91256008e+01 3.07607994e+01</_>
    <_>
      1.52676001e+01 3.08796005e+01</_>
    <_>
      3.18591995e+01 2.69263992e+01</_>
    <_>
      2.55872002e+01 2.77516003e+01</_>
    <_>
      2.75916004e+01 2.50039997e+01</_>
    <_>
      2.32127991e+01 2.62371998e+01</_>
    <_>
      1.80172005e+01 2.91539993e+01</_>
    <_>
      2.12719994e+01 2.96487999e+01</_>
    <_>
      1.61364002e+01 2.82728004e+01</_>
    <_>
      1.62075996e+01 3.29360008e+01</_>
    <_>
      1.78544006e+01 3.44396019e+01</_>
    <_>
      1.38304005e+01 3.66468010e+01</_>
    <_>
      2.99627991e+01 2.71952000e+01</_>
    <_>
      2.39951992e+01 2.91292000e+01</_>
    <_>
      2.35408001e+01 2.99192009e+01</_>
    <_>
      1.53431997e+01 3.03087997e+01</_>
    <_>
      1.47600002e+01 3.48363991e+01</_>
    <_>
      1.06067596e+02 8.44991989e+01</_>
    <_>
      1.27115997e+02 3.61927986e+01</_>
    <_>
      8.94204025e+01 7.08644028e+01</_>
    <_>
      6.90867996e+01 4.37131996e+01</_>
    <_>
      9.02043991e+01 6.31655998e+01</_>
    <_>
      9.00923996e+01 6.65112000e+01</_>
    <_>
      1.03633598e+02 6.18423996e+01</_>
    <_>
      1.06564003e+02 6.34388008e+01</_>
    <_>
      1.07819603e+02 6.51320038e+01</_>
    <_>
      1.11657204e+02 5.63731995e+01</_>
    <_>
      8.77307968e+01 6.11027985e+01</_>
    <_>
      9.71004028e+01 1.89267998e+01</_>
    <_>
      8.76072006e+01 5.66451988e+01</_>
    <_>
      1.08013603e+02 7.24840012e+01</_>
    <_>
      8.74412003e+01 4.96720009e+01</_>
    <_>
      6.50456009e+01 3.82704010e+01</_>
    <_>
      7.31391983e+01 3.98828011e+01</_>
    <_>
      3.44944000e+01 1.51247997e+01</_>
    <_>
      1.07079201e+02 8.99492035e+01</_>
    <_>
      1.22892799e+02 3.11627998e+01</_>
    <_>
      1.24417198e+02 2.75956001e+01</_>
    <_>
      1.07740799e+02 7.28883972e+01</_>
    <_>
      1.25191200e+02 3.29967995e+01</_>
    <_>
      1.10251602e+02 4.64679985e+01</_>
    <_>
      8.98367996e+01 7.35360031e+01</_>
    <_>
      7.73496017e+01 7.24980011e+01</_>
    <_>
      8.98927994e+01 6.85268021e+01</_>
    <_>
      7.27844009e+01 6.30159988e+01</_>
    <_>
      7.58140030e+01 5.84539986e+01</_>
    <_>
      1.06917999e+02 1.14978401e+02</_>
    <_>
      1.06204803e+02 6.15028000e+01</_>
    <_>
      1.12286797e+02 3.76623993e+01</_>
    <_>
      1.20219597e+02 1.64183998e+01</_>
    <_>
      1.14937202e+02 2.96380005e+01</_>
    <_>
      1.10594002e+02 5.97388000e+01</_>
    <_>
      1.11782402e+02 4.84952011e+01</_>
    <_>
      1.08502800e+02 6.67108002e+01</_>
    <_>
      9.96067963e+01 5.03384018e+01</_>
    <_>
      8.98840027e+01 4.25432014e+01</_>
    <_>
      1.06383598e+02 1.07682800e+02</_>
    <_>
      7.28787994e+01 4.78555984e+01</_>
    <_>
      8.48423996e+01 5.44767990e+01</_>
    <_>
      1.10039200e+02 5.71752014e+01</_>
    <_>
      8.05475998e+01 5.03335991e+01</_>
    <_>
      5.50803986e+01 6.75727997e+01</_>
    <_>
      6.76744003e+01 5.82304001e+01</_>
    <_>
      9.86207962e+01 6.90363998e+01</_>
    <_>
      8.84896011e+01 9.59240036e+01</_>
    <_>
      5.65148010e+01 3.17863998e+01</_>
    <_>
      7.90495987e+01 5.55699997e+01</_>
    <_>
      9.11063995e+01 5.66875992e+01</_>
    <_>
      6.55128021e+01 5.23059998e+01</_>
    <_>
      4.89315987e+01 5.73264008e+01</_>
    <_>
      4.21800003e+01 5.64119987e+01</_>
    <_>
      3.84315987e+01 5.67711983e+01</_>
    <_>
      3.14267998e+01 5.03432007e+01</_>
    <_>
      3.74715996e+01 2.81240005e+01</_>
    <_>
      2.47884007e+01 5.54799995e+01</_>
    <_>
      2.17012005e+01 6.01619987e+01</_>
    <_>
      2.11280003e+01 5.72276001e+01</_>
    <_>
      1.53324003e+01 6.25671997e+01</_>
    <_>
      2.67796001e+01 3.43680000e+01</_>
    <_>
      1.71203995e+01 7.36315994e+01</_>
    <_>
      1.90895996e+01 6.09396019e+01</_>
    <_>
      1.88255997e+01 4.23324013e+01</_>
    <_>
      2.42884007e+01 3.47827988e+01</_>
    <_>
      2.85063992e+01 2.51928005e+01</_>
    <_>
      1.87348003e+01 6.53692017e+01</_>
    <_>
      2.68031998e+01 4.19455986e+01</_>
    <_>
      1.71236000e+01 5.65396004e+01</_>
    <_>
      1.67940006e+01 5.34379997e+01</_>
    <_>
      1.53956003e+01 4.91563988e+01</_>
    <_>
      1.51836004e+01 4.27239990e+01</_>
    <_>
      2.16660004e+01 3.20523987e+01</_>
    <_>
      2.97968006e+01 1.97523994e+01</_>
    <_>
      3.79360008e+01 1.51619997e+01</_>
    <_>
      4.19412003e+01 2.46308002e+01</_>
    <_>
      1.59955997e+01 6.23632011e+01</_>
    <_>
      1.22023598e+02 1.30184002e+01</_>
    <_>
      3.41087990e+01 3.20075989e+01</_>
    <_>
      4.46195984e+01 3.42788010e+01</_>
    <_>
      7.39940033e+01 2.71588001e+01</_>
    <_>
      5.50891991e+01 2.74720001e+01</_>
    <_>
      2.34608002e+01 2.56168003e+01</_>
    <_>
      2.94195995e+01 2.29312000e+01</_>
    <_>
      5.27428017e+01 1.33903999e+01</_>
    <_>
      1.95876007e+01 3.88667984e+01</_>
    <_>
      9.97760010e+00 3.97019997e+01</_>
    <_>
      9.07199955e+00 3.73720016e+01</_>
    <_>
      4.10051994e+01 1.39568005e+01</_>
    <_>
      7.50143967e+01 1.36739998e+01</_>
    <_>
      6.15096016e+01 2.20872002e+01</_>
    <_>
      2.05580006e+01 3.88468018e+01</_>
    <_>
      9.09160042e+00 3.49868011e+01</_>
    <_>
      6.74184036e+01 1.30660000e+01</_>
    <_>
      3.43488007e+01 3.15331993e+01</_>
    <_>
      1.05724001e+01 3.78768005e+01</_>
    <_>
      9.19639969e+00 3.57067986e+01</_>
    <_>
      1.66259995e+01 3.54211998e+01</_>
    <_>
      5.51115990e+01 3.33516006e+01</_>
    <_>
      8.88376007e+01 4.58540001e+01</_>
    <_>
      2.32395992e+01 3.02535992e+01</_>
    <_>
      8.12544022e+01 4.15536003e+01</_>
    <_>
      1.00631599e+02 4.67831993e+01</_>
    <_>
      2.75888004e+01 3.28656006e+01</_>
    <_>
      1.04074402e+02 5.56192017e+01</_>
    <_>
      6.63567963e+01 4.04711990e+01</_>
    <_>
      1.11004402e+02 5.69840012e+01</_>
    <_>
      3.21903992e+01 3.42136002e+01</_>
    <_>
      1.11691999e+01 3.59123993e+01</_>
    <_>
      2.60811996e+01 3.01599998e+01</_>
    <_>
      1.23764000e+01 3.76912003e+01</_>
    <_>
      2.40296001e+01 3.59272003e+01</_>
    <_>
      5.56003990e+01 3.80032005e+01</_>
    <_>
      2.26368008e+01 3.47988014e+01</_>
    <_>
      2.56723995e+01 3.47400017e+01</_>
    <_>
      1.10160797e+02 6.21016006e+01</_>
    <_>
      7.56959991e+01 4.59287987e+01</_>
    <_>
      3.81959991e+01 3.33580017e+01</_>
    <_>
      9.73379974e+01 5.23695984e+01</_>
    <_>
      1.12006798e+02 6.23604012e+01</_>
    <_>
      7.60036011e+01 4.34592018e+01</_>
    <_>
      2.29603996e+01 3.53328018e+01</_>
    <_>
      9.28552017e+01 4.72340012e+01</_>
    <_>
      9.80400009e+01 5.55484009e+01</_>
    <_>
      2.32147999e+01 3.14204006e+01</_>
    <_>
      1.02212000e+01 3.66111984e+01</_>
    <_>
      4.52487984e+01 3.39020004e+01</_>
    <_>
      1.11334801e+02 6.41772003e+01</_>
    <_>
      1.11349602e+02 6.79800034e+01</_>
    <_>
      1.10657204e+02 5.69664001e+01</_>
    <_>
      1.11678398e+02 6.01763992e+01</_>
    <_>
      1.11056000e+02 6.68904037e+01</_>
    <_>
      9.39000015e+01 5.73468018e+01</_>
    <_>
      1.12399998e+01 4.04371986e+01</_>
    <_>
      5.89631996e+01 3.75484009e+01</_>
    <_>
      1.11492401e+02 6.27896004e+01</_>
    <_>
      1.10423599e+02 6.47919998e+01</_>
    <_>
      1.09860397e+02 6.69692001e+01</_>
    <_>
      1.09773598e+02 6.83740005e+01</_>
    <_>
      1.09303999e+01 3.54015999e+01</_>
    <_>
      6.49876022e+01 3.93524017e+01</_>
    <_>
      1.10215599e+02 7.20475998e+01</_>
    <_>
      1.08938004e+02 7.05627975e+01</_>
    <_>
      1.09736801e+02 7.23947983e+01</_>
    <_>
      5.93344002e+01 4.24903984e+01</_>
    <_>
      1.09866798e+02 7.18244019e+01</_>
    <_>
      1.09214401e+02 7.48672028e+01</_>
    <_>
      1.09874802e+02 7.46424026e+01</_>
    <_>
      1.09030403e+02 7.51587982e+01</_>
    <_>
      1.09085999e+02 7.62867966e+01</_>
    <_>
      4.49252014e+01 3.88839989e+01</_>
    <_>
      6.66735992e+01 4.57612000e+01</_>
    <_>
      9.99596024e+01 8.46187973e+01</_>
    <_>
      8.69176025e+01 6.42328033e+01</_>
    <_>
      9.25339966e+01 6.02747993e+01</_>
    <_>
      9.29759979e+01 5.42019997e+01</_>
    <_>
      5.49071999e+01 4.20796013e+01</_>
    <_>
      1.05929199e+02 1.27735199e+02</_>
    <_>
      8.07248001e+01 7.52132034e+01</_>
    <_>
      5.03460007e+01 3.90495987e+01</_>
    <_>
      1.05508400e+02 8.89848022e+01</_>
    <_>
      7.18832016e+01 4.99216003e+01</_>
    <_>
      9.58975983e+01 6.03632011e+01</_>
    <_>
      1.04412003e+02 7.89291992e+01</_>
    <_>
      5.91744003e+01 2.86079998e+01</_>
    <_>
      1.05907997e+02 1.36648804e+02</_>
    <_>
      9.78147964e+01 1.01649597e+02</_>
    <_>
      1.04631599e+02 7.12360001e+01</_>
    <_>
      1.04695602e+02 6.83776016e+01</_>
    <_>
      1.01195999e+02 6.84468002e+01</_>
    <_>
      9.81315994e+01 5.74115982e+01</_>
    <_>
      1.03747200e+02 6.63476028e+01</_>
    <_>
      9.07524033e+01 1.55804005e+01</_>
    <_>
      1.06616402e+02 8.18432007e+01</_>
    <_>
      1.10093201e+02 6.85235977e+01</_>
    <_>
      1.06006798e+02 9.96760025e+01</_>
    <_>
      1.04792397e+02 5.64452019e+01</_>
    <_>
      1.01267601e+02 3.94196014e+01</_>
    <_>
      1.02587196e+02 1.20968399e+02</_>
    <_>
      1.05557602e+02 1.16365997e+02</_>
    <_>
      8.12592010e+01 3.12644005e+01</_>
    <_>
      9.12351990e+01 3.14452000e+01</_>
    <_>
      1.03738403e+02 4.93468018e+01</_>
    <_>
      1.09155197e+02 4.31016006e+01</_>
    <_>
      8.56620026e+01 3.67232018e+01</_>
    <_>
      1.04165604e+02 3.71539993e+01</_>
    <_>
      9.69711990e+01 4.29603996e+01</_>
    <_>
      1.00509201e+02 1.21456398e+02</_>
    <_>
      9.58535995e+01 9.44283981e+01</_>
    <_>
      1.02274002e+02 6.08260002e+01</_>
    <_>
      9.43924026e+01 6.92119980e+01</_>
    <_>
      1.09050003e+02 7.43035965e+01</_>
    <_>
      7.51004028e+01 4.71836014e+01</_>
    <_>
      5.01647987e+01 3.26783981e+01</_>
    <_>
      6.31619987e+01 4.98587990e+01</_>
    <_>
      6.21899986e+01 4.01963997e+01</_>
    <_>
      4.72691994e+01 3.32228012e+01</_>
    <_>
      4.19280014e+01 4.94328003e+01</_>
    <_>
      5.18272018e+01 5.51675987e+01</_>
    <_>
      4.46615982e+01 3.25260010e+01</_>
    <_>
      3.89435997e+01 3.59496002e+01</_>
    <_>
      4.76815987e+01 2.68640003e+01</_>
    <_>
      2.85788002e+01 4.72556000e+01</_>
    <_>
      1.98059998e+01 4.46048012e+01</_>
    <_>
      4.44007988e+01 3.03796005e+01</_>
    <_>
      2.85279999e+01 2.18980007e+01</_>
    <_>
      2.49559994e+01 2.50979996e+01</_>
    <_>
      2.43680000e+01 2.40512009e+01</_>
    <_>
      3.69259987e+01 4.39760017e+00</_>
    <_>
      5.52108002e+01 6.33839989e+00</_>
    <_>
      4.21360016e+01 2.24400005e+01</_>
    <_>
      8.38799953e+00 2.33976002e+01</_>
    <_>
      1.86996002e+01 3.84623985e+01</_>
    <_>
      1.80524006e+01 5.38356018e+01</_>
    <_>
      3.21391983e+01 1.80428009e+01</_>
    <_>
      2.79351997e+01 1.90144005e+01</_>
    <_>
      3.51128006e+01 1.65508003e+01</_>
    <_>
      3.10587997e+01 1.76695995e+01</_>
    <_>
      4.24364014e+01 1.04787998e+01</_>
    <_>
      3.04951992e+01 2.77632008e+01</_>
    <_>
      4.74800014e+00 2.27432003e+01</_>
    <_>
      3.50624008e+01 1.72740002e+01</_>
    <_>
      3.47687988e+01 1.35788002e+01</_>
    <_>
      3.81436005e+01 1.41163998e+01</_>
    <_>
      3.90344009e+01 1.33459997e+01</_>
    <_>
      7.45775986e+01 1.56288004e+01</_>
    <_>
      9.22807999e+01 4.26496010e+01</_>
    <_>
      3.68068008e+01 3.27004013e+01</_>
    <_>
      5.07800007e+00 2.43579998e+01</_>
    <_>
      7.66559982e+00 2.69631996e+01</_>
    <_>
      1.72735996e+01 4.60036011e+01</_>
    <_>
      3.31795998e+01 1.70951996e+01</_>
    <_>
      4.89735985e+01 1.37063999e+01</_>
    <_>
      5.44071999e+01 1.10967999e+01</_>
    <_>
      8.33239975e+01 2.71735992e+01</_>
    <_>
      9.48488007e+01 5.34888000e+01</_>
    <_>
      5.35920000e+00 2.25620003e+01</_>
    <_>
      6.92719984e+00 2.35587997e+01</_>
    <_>
      6.03600006e+01 1.30500002e+01</_>
    <_>
      6.69703979e+01 1.46359997e+01</_>
    <_>
      9.58392029e+01 3.98335991e+01</_>
    <_>
      7.89448013e+01 3.84239998e+01</_>
    <_>
      8.24279976e+00 2.02915993e+01</_>
    <_>
      7.89955978e+01 1.59659996e+01</_>
    <_>
      1.05503197e+02 5.04767990e+01</_>
    <_>
      6.69552002e+01 3.76091995e+01</_>
    <_>
      6.61280012e+00 2.55160007e+01</_>
    <_>
      6.40000010e+00 2.44652004e+01</_>
    <_>
      9.13440037e+00 2.05251999e+01</_>
    <_>
      9.46511993e+01 3.58075981e+01</_>
    <_>
      2.59099998e+01 3.05508003e+01</_>
    <_>
      8.08720016e+00 2.49127998e+01</_>
    <_>
      7.73719978e+00 2.22103996e+01</_>
    <_>
      1.03767996e+01 2.36551991e+01</_>
    <_>
      1.01655998e+01 2.20620003e+01</_>
    <_>
      2.62131996e+01 2.09908009e+01</_>
    <_>
      9.22939987e+01 1.72964001e+01</_>
    <_>
      1.66212006e+01 2.67520008e+01</_>
    <_>
      9.35439968e+00 2.52264004e+01</_>
    <_>
      1.09325600e+02 3.18195992e+01</_>
    <_>
      1.13279999e+02 6.28488007e+01</_>
    <_>
      1.25995998e+01 2.39643993e+01</_>
    <_>
      1.24986397e+02 4.11931992e+01</_>
    <_>
      1.10724403e+02 7.56495972e+01</_>
    <_>
      1.84372005e+01 2.75503998e+01</_>
    <_>
      1.22783203e+02 4.44928017e+01</_>
    <_>
      1.11009201e+02 7.57664032e+01</_>
    <_>
      1.26769600e+02 5.14559984e+00</_>
    <_>
      1.09503601e+02 2.04351997e+01</_>
    <_>
      1.05648003e+02 9.16959953e+00</_>
    <_>
      6.71536026e+01 8.87880039e+00</_>
    <_>
      1.77103996e+01 1.71667995e+01</_>
    <_>
      1.58420000e+01 1.42388000e+01</_>
    <_>
      1.98416004e+01 1.09631996e+01</_>
    <_>
      1.13124397e+02 7.00839996e+00</_>
    <_>
      1.29022400e+02 5.78480005e+00</_>
    <_>
      1.80235996e+01 1.87744007e+01</_>
    <_>
      1.65608006e+01 1.50296001e+01</_>
    <_>
      1.90063992e+01 1.23676004e+01</_>
    <_>
      2.28927994e+01 1.11115999e+01</_>
    <_>
      2.97056007e+01 1.95776005e+01</_>
    <_>
      5.59347992e+01 7.24359989e+00</_>
    <_>
      5.65428009e+01 1.47083998e+01</_>
    <_>
      3.26927986e+01 1.70503998e+01</_>
    <_>
      5.30923996e+01 1.46999998e+01</_>
    <_>
      7.91243973e+01 9.73159981e+00</_>
    <_>
      9.70940018e+01 3.77119994e+00</_>
    <_>
      6.18359985e+01 4.92399979e+00</_>
    <_>
      5.38255997e+01 1.92952003e+01</_>
    <_>
      7.78143997e+01 1.78155994e+01</_>
    <_>
      7.78107986e+01 6.25320005e+00</_>
    <_>
      6.56556015e+01 3.19631996e+01</_>
    <_>
      7.63048019e+01 2.60408001e+01</_>
    <_>
      9.67975998e+01 2.09379997e+01</_>
    <_>
      9.47595978e+01 5.01776009e+01</_>
    <_>
      6.04063988e+01 4.12112007e+01</_>
    <_>
      9.64815979e+01 1.19899998e+01</_>
    <_>
      8.83807983e+01 3.59999990e+00</_>
    <_>
      9.26587982e+01 1.78836002e+01</_>
    <_>
      6.48031998e+01 4.36255989e+01</_>
    <_>
      1.01809998e+02 5.14715996e+01</_>
    <_>
      7.85584030e+01 1.24127998e+01</_>
    <_>
      1.14218002e+02 5.78447990e+01</_>
    <_>
      1.08270798e+02 5.99095993e+01</_>
    <_>
      9.11579971e+01 5.65964012e+01</_>
    <_>
      1.06420799e+02 5.33068008e+01</_>
    <_>
      9.02984009e+01 4.00340004e+01</_>
    <_>
      9.66220016e+01 3.63331985e+01</_>
    <_>
      8.16128006e+01 7.04191971e+01</_>
    <_>
      9.66752014e+01 4.64816017e+01</_>
    <_>
      9.30011978e+01 5.06856003e+01</_>
    <_>
      9.29464035e+01 3.54847984e+01</_>
    <_>
      8.13104019e+01 2.51243992e+01</_>
    <_>
      1.12194397e+02 6.59291992e+01</_>
    <_>
      1.07446800e+02 7.65179977e+01</_>
    <_>
      9.23331985e+01 6.70599976e+01</_>
    <_>
      1.11367203e+02 6.23736000e+01</_>
    <_>
      9.52763977e+01 2.57987995e+01</_>
    <_>
      1.02541603e+02 4.46167984e+01</_>
    <_>
      8.97839966e+01 7.94571991e+01</_>
    <_>
      6.20215988e+01 4.19483986e+01</_>
    <_>
      6.64140015e+01 3.64220009e+01</_>
    <_>
      5.88727989e+01 5.10971985e+01</_>
    <_>
      5.32612000e+01 3.16560001e+01</_>
    <_>
      3.45671997e+01 3.72659988e+01</_>
    <_>
      3.10939999e+01 3.84987984e+01</_>
    <_>
      5.13680000e+01 3.61423988e+01</_>
    <_>
      6.55627975e+01 6.12456017e+01</_>
    <_>
      4.72200012e+01 4.40155983e+01</_>
    <_>
      6.93743973e+01 3.88423996e+01</_>
    <_>
      3.69855995e+01 3.99179993e+01</_>
    <_>
      1.64768009e+01 6.76908035e+01</_>
    <_>
      2.25167999e+01 6.73852005e+01</_>
    <_>
      2.85580006e+01 1.74764004e+01</_>
    <_>
      2.91147995e+01 1.58632002e+01</_>
    <_>
      3.09796009e+01 2.01704006e+01</_>
    <_>
      2.84951992e+01 2.09263992e+01</_>
    <_>
      2.83616009e+01 2.79123993e+01</_>
    <_>
      2.37488003e+01 3.94743996e+01</_>
    <_>
      1.75359993e+01 3.67308006e+01</_>
    <_>
      1.16048002e+01 3.63115997e+01</_>
    <_>
      1.10923996e+01 3.54412003e+01</_>
    <_>
      1.23431997e+01 3.14419994e+01</_>
    <_>
      1.29211998e+01 2.55084000e+01</_>
    <_>
      1.44208002e+01 2.28208008e+01</_>
    <_>
      1.40016003e+01 2.60107994e+01</_>
    <_>
      1.26375999e+01 3.12679996e+01</_>
    <_>
      2.13875999e+01 3.39431992e+01</_>
    <_>
      6.96663971e+01 2.41623993e+01</_>
    <_>
      8.05347977e+01 1.85564003e+01</_>
    <_>
      5.63387985e+01 1.63931999e+01</_>
    <_>
      3.04692001e+01 1.22911997e+01</_>
    <_>
      3.24931984e+01 2.14332008e+01</_>
    <_>
      1.51320000e+01 2.62460003e+01</_>
    <_>
      1.70456009e+01 2.24060001e+01</_>
    <_>
      1.52475996e+01 1.60023994e+01</_>
    <_>
      1.57019997e+01 2.10443993e+01</_>
    <_>
      1.41459999e+01 2.59111996e+01</_>
    <_>
      7.26763992e+01 3.26147995e+01</_>
    <_>
      1.09812798e+02 3.33636017e+01</_>
    <_>
      8.88672028e+01 2.17707996e+01</_>
    <_>
      5.84483986e+01 1.74528008e+01</_>
    <_>
      1.37491999e+01 1.32271996e+01</_>
    <_>
      1.87528000e+01 1.70303993e+01</_>
    <_>
      1.77420006e+01 1.96247997e+01</_>
    <_>
      1.44440002e+01 2.26583996e+01</_>
    <_>
      2.83419991e+01 3.57891998e+01</_>
    <_>
      9.36052017e+01 3.44888000e+01</_>
    <_>
      1.02668404e+02 4.02131996e+01</_>
    <_>
      1.36087999e+01 1.80799999e+01</_>
    <_>
      2.89496002e+01 3.43860016e+01</_>
    <_>
      6.83608017e+01 3.80732002e+01</_>
    <_>
      1.20332003e+01 2.48071995e+01</_>
    <_>
      1.47539997e+01 1.91399994e+01</_>
    <_>
      1.17931995e+01 3.49108009e+01</_>
    <_>
      1.18140001e+01 2.94284000e+01</_>
    <_>
      9.85760021e+00 3.36335983e+01</_>
    <_>
      1.50620003e+01 1.70555992e+01</_>
    <_>
      1.22440004e+01 3.08264008e+01</_>
    <_>
      1.47824001e+01 1.28676004e+01</_>
    <_>
      1.11851997e+01 3.08616009e+01</_>
    <_>
      1.08903999e+01 3.31647987e+01</_>
    <_>
      1.24399996e+01 3.57024002e+01</_>
    <_>
      1.91520004e+01 1.21063995e+01</_>
    <_>
      2.47220001e+01 9.03479958e+00</_>
    <_>
      1.27712002e+01 3.13391991e+01</_>
    <_>
      1.80419998e+01 2.21532001e+01</_>
    <_>
      2.89675999e+01 2.80739994e+01</_>
    <_>
      1.72735996e+01 3.02411995e+01</_>
    <_>
      2.15543995e+01 2.77240009e+01</_>
    <_>
      1.31244001e+01 3.44631996e+01</_>
    <_>
      1.38836002e+01 3.31292000e+01</_>
    <_>
      1.32919998e+01 3.22463989e+01</_>
    <_>
      1.34583998e+01 3.74668007e+01</_>
    <_>
      8.61996002e+01 7.52239990e+00</_>
    <_>
      8.96248016e+01 6.88479996e+00</_>
    <_>
      1.20582001e+02 4.16332016e+01</_>
    <_>
      1.14462799e+02 4.03195992e+01</_>
    <_>
      9.28588028e+01 6.83239985e+00</_>
    <_>
      1.21154404e+02 2.24160004e+00</_>
    <_>
      1.44376404e+02 8.70759964e+00</_>
    <_>
      1.23340797e+02 4.53591995e+01</_>
    <_>
      1.18437599e+02 4.95428009e+01</_>
    <_>
      1.12503998e+02 4.27151985e+01</_>
    <_>
      1.24904404e+02 9.63920021e+00</_>
    <_>
      1.43945602e+02 3.87360001e+00</_>
    <_>
      1.50034805e+02 4.77839994e+00</_>
    <_>
      1.61079193e+02 2.15319991e+00</_>
    <_>
      1.55904800e+02 5.33559990e+00</_>
    <_>
      1.52414795e+02 6.07760000e+00</_>
    <_>
      1.15983597e+02 4.36244011e+01</_>
    <_>
      1.08932404e+02 5.58703995e+01</_>
    <_>
      8.62024002e+01 1.86891994e+01</_>
    <_>
      1.11953598e+02 1.18872004e+01</_>
    <_>
      1.22758400e+02 6.51599979e+00</_>
    <_>
      1.22636398e+02 1.58528004e+01</_>
    <_>
      9.76592026e+01 2.50923996e+01</_>
    <_>
      1.21352798e+02 3.94872017e+01</_>
    <_>
      1.10265999e+02 4.01507988e+01</_>
    <_>
      1.34955994e+02 4.70320015e+01</_>
    <_>
      7.43639984e+01 3.25400009e+01</_>
    <_>
      6.68112030e+01 2.64220009e+01</_>
    <_>
      8.61172028e+01 2.64871998e+01</_>
    <_>
      9.69128036e+01 1.61868000e+01</_>
    <_>
      5.80587997e+01 1.91991997e+01</_>
    <_>
      4.72596016e+01 1.83560009e+01</_>
    <_>
      4.20204010e+01 1.75051994e+01</_>
    <_>
      5.69651985e+01 2.53955994e+01</_>
    <_>
      8.83535995e+01 1.61208000e+01</_>
    <_>
      9.02259979e+01 2.22747993e+01</_>
    <_>
      9.91184006e+01 1.55172005e+01</_>
    <_>
      1.05352798e+02 2.01004009e+01</_>
    <_>
      1.08975998e+02 2.30608006e+01</_>
    <_>
      8.41936035e+01 1.30120001e+01</_>
    <_>
      9.91607971e+01 2.25396004e+01</_>
    <_>
      1.01293602e+02 2.55272007e+01</_>
    <_>
      7.36027985e+01 1.85272007e+01</_>
    <_>
      7.51128006e+01 1.33316002e+01</_>
    <_>
      1.37335602e+02 6.80867996e+01</_>
    <_>
      1.31197998e+02 4.14724007e+01</_>
    <_>
      1.15170403e+02 2.31508007e+01</_>
    <_>
      1.17573601e+02 2.22952003e+01</_>
    <_>
      1.16268799e+02 1.99920006e+01</_>
    <_>
      1.19405197e+02 2.40408001e+01</_>
    <_>
      1.16313202e+02 2.77007999e+01</_>
    <_>
      1.14991600e+02 3.38160019e+01</_>
    <_>
      1.18209999e+02 3.50680008e+01</_>
    <_>
      6.77628021e+01 2.39295998e+01</_>
    <_>
      7.22416000e+01 2.62964001e+01</_>
    <_>
      4.58507996e+01 2.15079994e+01</_>
    <_>
      4.56283989e+01 2.23220005e+01</_>
    <_>
      5.35716019e+01 2.24375992e+01</_>
    <_>
      5.17639999e+01 2.08659992e+01</_>
    <_>
      4.51531982e+01 1.86459999e+01</_>
    <_>
      5.39588013e+01 1.92675991e+01</_>
    <_>
      4.26851997e+01 1.71236000e+01</_>
    <_>
      3.41192017e+01 1.62735996e+01</_>
    <_>
      1.54020004e+01 1.52292004e+01</_>
    <_>
      1.78476009e+01 1.52664003e+01</_>
    <_>
      2.20552006e+01 1.64391994e+01</_>
    <_>
      5.30872002e+01 1.23188000e+01</_>
    <_>
      7.97192001e+01 1.66996002e+01</_>
    <_>
      8.84639969e+01 2.38467999e+01</_>
    <_>
      1.12032003e+01 1.86931992e+01</_>
    <_>
      1.29080000e+01 1.68087997e+01</_>
    <_>
      2.95900002e+01 1.42404003e+01</_>
    <_>
      1.96228008e+01 1.39267998e+01</_>
    <_>
      4.19239998e+01 1.20276003e+01</_>
    <_>
      4.78520012e+01 1.13395996e+01</_>
    <_>
      2.90643997e+01 1.28680000e+01</_>
    <_>
      1.96720009e+01 1.33584003e+01</_>
    <_>
      1.54384003e+01 1.47388000e+01</_>
    <_>
      9.12479973e+00 1.60063992e+01</_>
    <_>
      2.78012009e+01 1.44812002e+01</_>
    <_>
      9.22127991e+01 1.50948000e+01</_>
    <_>
      1.17120003e+02 3.05396004e+01</_>
    <_>
      1.10269203e+02 5.61136017e+01</_>
    <_>
      1.43128004e+01 1.81375999e+01</_>
    <_>
      1.62639999e+01 1.68540001e+01</_>
    <_>
      1.92395992e+01 1.56160002e+01</_>
    <_>
      1.55291996e+01 1.47559996e+01</_>
    <_>
      5.48260002e+01 1.14652004e+01</_>
    <_>
      4.94720001e+01 1.20760002e+01</_>
    <_>
      4.52108002e+01 1.14840002e+01</_>
    <_>
      2.97912006e+01 1.22304001e+01</_>
    <_>
      2.98812008e+01 1.35424004e+01</_>
    <_>
      1.49068003e+01 1.41336002e+01</_>
    <_>
      1.06636000e+01 1.57240000e+01</_>
    <_>
      5.27224007e+01 1.46971998e+01</_>
    <_>
      6.74568024e+01 1.15372000e+01</_>
    <_>
      1.04286400e+02 1.55139999e+01</_>
    <_>
      1.12181602e+02 4.36268005e+01</_>
    <_>
      2.61751995e+01 2.10312004e+01</_>
    <_>
      1.81364002e+01 1.59399996e+01</_>
    <_>
      2.06392002e+01 1.53188000e+01</_>
    <_>
      3.52556000e+01 1.40003996e+01</_>
    <_>
      3.71059990e+01 1.28775997e+01</_>
    <_>
      6.54527969e+01 1.17975998e+01</_>
    <_>
      4.65447998e+01 1.23767996e+01</_>
    <_>
      3.71111984e+01 1.15419998e+01</_>
    <_>
      3.33643990e+01 1.26040001e+01</_>
    <_>
      4.56304016e+01 1.27384005e+01</_>
    <_>
      7.98863983e+01 1.19792004e+01</_>
    <_>
      1.03067200e+02 1.65611992e+01</_>
    <_>
      1.15277199e+02 1.30319996e+01</_>
    <_>
      1.17368401e+02 2.58836002e+01</_>
    <_>
      1.14045601e+02 3.69672012e+01</_>
    <_>
      2.86128006e+01 2.06124001e+01</_>
    <_>
      1.33936005e+01 1.86012001e+01</_>
    <_>
      1.82532005e+01 1.82787991e+01</_>
    <_>
      2.35020008e+01 1.76975994e+01</_>
    <_>
      2.53668003e+01 1.59835997e+01</_>
    <_>
      3.62932014e+01 1.42967997e+01</_>
    <_>
      4.06279984e+01 1.29499998e+01</_>
    <_>
      5.20624008e+01 1.27656002e+01</_>
    <_>
      6.31300011e+01 1.32676001e+01</_>
    <_>
      6.09304008e+01 1.27600002e+01</_>
    <_>
      4.56412010e+01 1.14980001e+01</_>
    <_>
      3.55740013e+01 1.27228003e+01</_>
    <_>
      4.11496010e+01 1.35844002e+01</_>
    <_>
      9.69647980e+01 1.26395998e+01</_>
    <_>
      1.04978798e+02 9.71599960e+00</_>
    <_>
      1.14866798e+02 2.78491993e+01</_>
    <_>
      1.13507202e+02 2.55251999e+01</_>
    <_>
      1.13986000e+02 2.93143997e+01</_>
    <_>
      2.88612003e+01 2.13444004e+01</_>
    <_>
      1.74559994e+01 1.81051998e+01</_>
    <_>
      1.35391998e+01 1.80671997e+01</_>
    <_>
      3.04036007e+01 1.61084003e+01</_>
    <_>
      2.54811993e+01 1.71343994e+01</_>
    <_>
      3.47575989e+01 1.43327999e+01</_>
    <_>
      5.38103981e+01 1.37936001e+01</_>
    <_>
      7.52552032e+01 1.19244003e+01</_>
    <_>
      5.88899994e+01 1.31599998e+01</_>
    <_>
      5.60688019e+01 1.14955997e+01</_>
    <_>
      3.67855988e+01 1.40251999e+01</_>
    <_>
      3.11952000e+01 1.28028002e+01</_>
    <_>
      9.19960022e+01 1.35923996e+01</_>
    <_>
      1.15756401e+02 1.58803997e+01</_>
    <_>
      1.13431602e+02 2.97896004e+01</_>
    <_>
      1.15117599e+02 2.32439995e+01</_>
    <_>
      3.27060013e+01 2.04776001e+01</_>
    <_>
      1.90755997e+01 1.81723995e+01</_>
    <_>
      2.18204002e+01 1.76124001e+01</_>
    <_>
      3.18096008e+01 1.66004009e+01</_>
    <_>
      2.45156002e+01 1.64020004e+01</_>
    <_>
      3.37579994e+01 1.49876003e+01</_>
    <_>
      3.87995987e+01 1.47320004e+01</_>
    <_>
      4.09795990e+01 1.39392004e+01</_>
    <_>
      7.80092010e+01 1.27511997e+01</_>
    <_>
      6.22560005e+01 1.33808002e+01</_>
    <_>
      5.25435982e+01 1.40699997e+01</_>
    <_>
      5.63815994e+01 1.33008003e+01</_>
    <_>
      4.42215996e+01 1.33808002e+01</_>
    <_>
      3.37136002e+01 1.68299999e+01</_>
    <_>
      1.93363991e+01 1.66424007e+01</_>
    <_>
      4.77631989e+01 1.49252005e+01</_>
    <_>
      5.60792007e+01 1.57159996e+01</_>
    <_>
      7.67376022e+01 1.59840002e+01</_>
    <_>
      2.44647999e+01 1.75804005e+01</_>
    <_>
      3.04668007e+01 1.74988003e+01</_>
    <_>
      3.24392014e+01 1.65079994e+01</_>
    <_>
      3.61236000e+01 1.54907999e+01</_>
    <_>
      6.69823990e+01 1.25615997e+01</_>
    <_>
      6.32088013e+01 1.25028000e+01</_>
    <_>
      3.99571991e+01 1.24792004e+01</_>
    <_>
      4.36571999e+01 1.41051998e+01</_>
    <_>
      4.78936005e+01 1.45072002e+01</_>
    <_>
      2.61872005e+01 1.62136002e+01</_>
    <_>
      2.02856007e+01 1.69391994e+01</_>
    <_>
      1.65072002e+01 1.72099991e+01</_>
    <_>
      9.58191986e+01 1.11367998e+01</_>
    <_>
      8.86976013e+01 1.04927998e+01</_>
    <_>
      2.82056007e+01 2.04183998e+01</_>
    <_>
      2.39783993e+01 1.91672001e+01</_>
    <_>
      2.89631996e+01 1.78756008e+01</_>
    <_>
      3.05568008e+01 1.84720001e+01</_>
    <_>
      2.83827991e+01 1.66128006e+01</_>
    <_>
      2.93864002e+01 1.55663996e+01</_>
    <_>
      3.45611992e+01 1.44652004e+01</_>
    <_>
      4.81500015e+01 1.37052002e+01</_>
    <_>
      4.51283989e+01 1.38268003e+01</_>
    <_>
      5.84952011e+01 1.33780003e+01</_>
    <_>
      4.58987999e+01 1.50431995e+01</_>
    <_>
      3.96972008e+01 1.59631996e+01</_>
    <_>
      2.32352009e+01 1.59348001e+01</_>
    <_>
      7.54627991e+01 1.25716000e+01</_>
    <_>
      3.05056000e+01 2.04340000e+01</_>
    <_>
      1.84335995e+01 2.06420002e+01</_>
    <_>
      1.80531998e+01 1.89871998e+01</_>
    <_>
      3.36287994e+01 1.82068005e+01</_>
    <_>
      3.80895996e+01 1.60855999e+01</_>
    <_>
      4.05068016e+01 1.51851997e+01</_>
    <_>
      4.45915985e+01 1.46871996e+01</_>
    <_>
      3.91007996e+01 1.48912001e+01</_>
    <_>
      4.91115990e+01 1.38207998e+01</_>
    <_>
      5.47540016e+01 1.45880003e+01</_>
    <_>
      4.61828003e+01 1.76163998e+01</_>
    <_>
      2.38423996e+01 1.84503994e+01</_>
    <_>
      2.04036007e+01 1.82492008e+01</_>
    <_>
      2.77880001e+01 1.71271992e+01</_>
    <_>
      2.81548004e+01 2.07600002e+01</_>
    <_>
      1.94759998e+01 1.98423996e+01</_>
    <_>
      2.82504005e+01 1.88507996e+01</_>
    <_>
      3.15888004e+01 1.87003994e+01</_>
    <_>
      3.47887993e+01 1.75795994e+01</_>
    <_>
      2.70716000e+01 1.70720005e+01</_>
    <_>
      3.33856010e+01 1.66180000e+01</_>
    <_>
      4.51048012e+01 1.56219997e+01</_>
    <_>
      3.56879997e+01 1.58403997e+01</_>
    <_>
      4.04304008e+01 1.74179993e+01</_>
    <_>
      3.89384003e+01 1.75863991e+01</_>
    <_>
      5.03936005e+01 1.71907997e+01</_>
    <_>
      4.72747993e+01 1.76399994e+01</_>
    <_>
      3.32148018e+01 1.87399998e+01</_>
    <_>
      2.78740005e+01 2.02108002e+01</_>
    <_>
      3.24412003e+01 1.99099998e+01</_>
    <_>
      3.29388008e+01 1.91580009e+01</_>
    <_>
      5.86571999e+01 1.64403992e+01</_>
    <_>
      3.13836002e+01 2.32283993e+01</_>
    <_>
      2.27859993e+01 2.18439999e+01</_>
    <_>
      2.47931995e+01 2.17259998e+01</_>
    <_>
      4.06391983e+01 2.00587997e+01</_>
    <_>
      4.39616013e+01 1.63127995e+01</_>
    <_>
      3.66520004e+01 1.71984005e+01</_>
    <_>
      4.81608009e+01 1.55860004e+01</_>
    <_>
      4.99483986e+01 1.62220001e+01</_>
    <_>
      4.36328011e+01 1.54516001e+01</_>
    <_>
      4.95839996e+01 1.61704006e+01</_>
    <_>
      4.52095985e+01 1.75000000e+01</_>
    <_>
      3.77760010e+01 1.89248009e+01</_>
    <_>
      4.30891991e+01 1.86952000e+01</_>
    <_>
      3.54704018e+01 1.98631992e+01</_>
    <_>
      2.25972004e+01 1.93768005e+01</_>
    <_>
      3.06068001e+01 1.97563992e+01</_>
    <_>
      4.28288002e+01 1.68840008e+01</_>
    <_>
      2.14475994e+01 2.17028008e+01</_>
    <_>
      2.05275993e+01 1.98560009e+01</_>
    <_>
      3.47775993e+01 1.71879997e+01</_>
    <_>
      3.22855988e+01 1.81711998e+01</_>
    <_>
      3.57435989e+01 1.85175991e+01</_>
    <_>
      2.63476009e+01 1.86264000e+01</_>
    <_>
      4.90852013e+01 1.70456009e+01</_>
    <_>
      4.65284004e+01 1.61072006e+01</_>
    <_>
      3.49171982e+01 1.67224007e+01</_>
    <_>
      4.82039986e+01 1.73563995e+01</_>
    <_>
      4.02204018e+01 1.76968002e+01</_>
    <_>
      4.40471992e+01 1.95643997e+01</_>
    <_>
      3.15247993e+01 2.05911999e+01</_>
    <_>
      2.90863991e+01 1.93152008e+01</_>
    <_>
      2.81399994e+01 2.08428001e+01</_>
    <_>
      4.18972015e+01 1.96732006e+01</_>
    <_>
      4.38344002e+01 1.90743999e+01</_>
    <_>
      1.10071198e+02 8.22811966e+01</_>
    <_>
      1.12539200e+02 1.76208000e+01</_>
    <_>
      1.13232002e+02 1.55888004e+01</_>
    <_>
      8.25828018e+01 1.97348003e+01</_>
    <_>
      4.95960007e+01 2.84080009e+01</_>
    <_>
      8.91976013e+01 5.43092003e+01</_>
    <_>
      1.19687202e+02 6.80324020e+01</_>
    <_>
      9.55979996e+01 5.71916008e+01</_>
    <_>
      5.76884003e+01 3.51896019e+01</_>
    <_>
      1.04132004e+02 8.65383987e+01</_>
    <_>
      6.97015991e+01 1.08464003e+01</_>
    <_>
      4.77919998e+01 2.33407993e+01</_>
    <_>
      1.39616394e+02 8.03496017e+01</_>
    <_>
      1.69848801e+02 8.73000031e+01</_>
    <_>
      1.72492401e+02 9.84940033e+01</_>
    <_>
      1.54707199e+02 9.10691986e+01</_>
    <_>
      4.24735985e+01 1.89599991e+01</_>
    <_>
      4.66731987e+01 1.87703991e+01</_>
    <_>
      8.30943985e+01 6.20999985e+01</_>
    <_>
      7.27883987e+01 1.42483997e+01</_>
    <_>
      4.21035995e+01 1.47315998e+01</_>
    <_>
      6.22715988e+01 2.98532009e+01</_>
    <_>
      6.40319977e+01 5.56436005e+01</_>
    <_>
      5.54024010e+01 5.57136002e+01</_>
    <_>
      5.62428017e+01 2.90116005e+01</_>
    <_>
      3.60656013e+01 1.72492008e+01</_>
    <_>
      4.31811981e+01 1.84571991e+01</_>
    <_>
      3.61664009e+01 1.56020002e+01</_>
    <_>
      3.86739998e+01 1.52519999e+01</_>
    <_>
      6.75680008e+01 3.49207993e+01</_>
    <_>
      9.90056000e+01 4.17547989e+01</_>
    <_>
      1.04638397e+02 5.51160011e+01</_>
    <_>
      9.84087982e+01 5.32592010e+01</_>
    <_>
      7.03287964e+01 7.88323975e+01</_>
    <_>
      6.40148010e+01 4.60811996e+01</_>
    <_>
      7.59695969e+01 6.27616005e+01</_>
    <_>
      2.61511993e+01 1.10811996e+01</_>
    <_>
      1.55895996e+01 1.35427999e+01</_>
    <_>
      1.39308004e+01 1.17251997e+01</_>
    <_>
      3.35088005e+01 5.81160011e+01</_>
    <_>
      7.59576035e+01 3.84104004e+01</_>
    <_>
      6.37612000e+01 4.08352013e+01</_>
    <_>
      9.11315994e+01 5.06776009e+01</_>
    <_>
      1.06318001e+02 5.12764015e+01</_>
    <_>
      1.07642403e+02 5.94491997e+01</_>
    <_>
      1.43613998e+02 9.84291992e+01</_>
    <_>
      1.63719604e+02 1.47148804e+02</_>
    <_>
      7.88855972e+01 2.16131992e+01</_>
    <_>
      7.26783981e+01 1.18543997e+01</_>
    <_>
      6.10503998e+01 1.74064007e+01</_>
    <_>
      6.22267990e+01 1.21288004e+01</_>
    <_>
      6.77127991e+01 1.87112007e+01</_>
    <_>
      4.53667984e+01 2.80851994e+01</_>
    <_>
      5.98451996e+01 3.72775993e+01</_>
    <_>
      1.00625999e+02 6.57340012e+01</_>
    <_>
      1.04688004e+02 9.55587997e+01</_>
    <_>
      9.93639984e+01 9.48735962e+01</_>
    <_>
      1.47001205e+02 1.60831604e+02</_>
    <_>
      1.67046799e+02 1.88348404e+02</_>
    <_>
      9.41948013e+01 7.49599991e+01</_>
    <_>
      1.19161598e+02 6.32304001e+01</_>
    <_>
      1.02117996e+02 2.81144009e+01</_>
    <_>
      1.56259598e+02 1.16543602e+02</_>
    <_>
      5.11408005e+01 3.05396004e+01</_>
    <_>
      6.00695992e+01 4.33075981e+01</_>
    <_>
      3.04067993e+01 4.52904015e+01</_>
    <_>
      3.08068008e+01 3.31716003e+01</_>
    <_>
      2.91375999e+01 3.96128006e+01</_>
    <_>
      2.24631996e+01 4.31119995e+01</_>
    <_>
      1.14357597e+02 1.48539993e+02</_>
    <_>
      1.61988007e+02 1.89926804e+02</_>
    <_>
      6.51651993e+01 9.43883972e+01</_>
    <_>
      3.43456001e+01 5.30103989e+01</_>
    <_>
      1.44667206e+02 1.44564407e+02</_>
    <_>
      4.30688019e+01 1.94811993e+01</_>
    <_>
      2.94195995e+01 1.56275997e+01</_>
    <_>
      2.82931995e+01 2.06044006e+01</_>
    <_>
      3.56487999e+01 1.97772007e+01</_>
    <_>
      3.77519989e+01 2.27220001e+01</_>
    <_>
      2.18959999e+01 4.88432007e+01</_>
    <_>
      1.95468006e+01 5.91296005e+01</_>
    <_>
      9.80587997e+01 1.34608002e+02</_>
    <_>
      1.35792007e+02 1.77326004e+02</_>
    <_>
      5.80312004e+01 3.52767982e+01</_>
    <_>
      9.71676025e+01 4.34935989e+01</_>
    <_>
      3.80816002e+01 1.03839998e+01</_>
    <_>
      3.02787991e+01 1.02044001e+01</_>
    <_>
      3.43156013e+01 1.25847998e+01</_>
    <_>
      3.82015991e+01 1.77520008e+01</_>
    <_>
      4.14972000e+01 1.63111992e+01</_>
    <_>
      3.18124008e+01 1.70608006e+01</_>
    <_>
      1.89347992e+01 4.85723991e+01</_>
    <_>
      1.61947994e+01 4.67151985e+01</_>
    <_>
      7.98920012e+00 3.44007988e+01</_>
    <_>
      7.88040018e+00 2.60023994e+01</_>
    <_>
      7.72024002e+01 4.29244003e+01</_>
    <_>
      1.09214798e+02 5.40852013e+01</_>
    <_>
      7.49639969e+01 2.48020000e+01</_>
    <_>
      4.73996010e+01 1.16096001e+01</_>
    <_>
      3.72616005e+01 2.08243999e+01</_>
    <_>
      3.66195984e+01 1.46344004e+01</_>
    <_>
      3.72159996e+01 1.51499996e+01</_>
    <_>
      1.75963993e+01 4.47491989e+01</_>
    <_>
      2.28612003e+01 2.86375999e+01</_>
    <_>
      1.04707199e+02 5.60960007e+01</_>
    <_>
      1.07967201e+02 5.96223984e+01</_>
    <_>
      8.81299973e+01 3.14904003e+01</_>
    <_>
      5.02323990e+01 1.46336002e+01</_>
    <_>
      4.85516014e+01 1.60056000e+01</_>
    <_>
      1.86823997e+01 4.47644005e+01</_>
    <_>
      8.57719994e+00 2.78348007e+01</_>
    <_>
      6.01748009e+01 3.82915993e+01</_>
    <_>
      1.03634003e+02 5.00912018e+01</_>
    <_>
      7.55492020e+01 2.08120003e+01</_>
    <_>
      6.57631989e+01 1.79071999e+01</_>
    <_>
      1.73115997e+01 4.16679993e+01</_>
    <_>
      8.57159996e+00 2.88516006e+01</_>
    <_>
      6.55996017e+01 4.26783981e+01</_>
    <_>
      7.20447998e+01 4.34659996e+01</_>
    <_>
      6.50963974e+01 3.95936012e+01</_>
    <_>
      4.55783997e+01 3.78708000e+01</_>
    <_>
      8.12223969e+01 4.37736015e+01</_>
    <_>
      1.08131599e+02 6.09616013e+01</_>
    <_>
      9.26327972e+01 3.86808014e+01</_>
    <_>
      9.65880013e+00 2.78899994e+01</_>
    <_>
      3.08411999e+01 3.29879990e+01</_>
    <_>
      8.39112015e+01 5.09007988e+01</_>
    <_>
      1.09396004e+02 6.36231995e+01</_>
    <_>
      1.09379204e+02 6.91391983e+01</_>
    <_>
      1.09766800e+02 7.07192001e+01</_>
    <_>
      1.07585197e+02 6.87104034e+01</_>
    <_>
      8.96119976e+00 3.02483997e+01</_>
    <_>
      1.92155991e+01 3.63447990e+01</_>
    <_>
      4.05107994e+01 3.99084015e+01</_>
    <_>
      9.13567963e+01 5.08232002e+01</_>
    <_>
      1.07968399e+02 7.28799973e+01</_>
    <_>
      3.46867981e+01 3.01424007e+01</_>
    <_>
      1.11637604e+02 6.07340012e+01</_>
    <_>
      1.08781601e+02 6.99216003e+01</_>
    <_>
      1.01272001e+01 2.99344006e+01</_>
    <_>
      6.63323975e+01 3.40551987e+01</_>
    <_>
      1.07006401e+02 5.73936005e+01</_>
    <_>
      6.36240005e+01 3.49155998e+01</_>
    <_>
      8.57320023e+01 4.45484009e+01</_>
    <_>
      9.62519989e+01 5.15120010e+01</_>
    <_>
      9.74272003e+01 5.24812012e+01</_>
    <_>
      7.59492035e+01 4.53331985e+01</_>
    <_>
      2.16728001e+01 3.03036003e+01</_>
    <_>
      3.50632019e+01 3.32319984e+01</_>
    <_>
      1.13744003e+02 5.59252014e+01</_>
    <_>
      1.11217598e+02 6.24739990e+01</_>
    <_>
      1.10300003e+02 6.87679977e+01</_>
    <_>
      1.05305199e+02 6.00831985e+01</_>
    <_>
      6.19375992e+01 4.12904015e+01</_>
    <_>
      1.79120007e+01 3.06627998e+01</_>
    <_>
      1.18135996e+01 3.38807983e+01</_>
    <_>
      1.12489601e+02 6.09504013e+01</_>
    <_>
      1.10073601e+02 6.88348007e+01</_>
    <_>
      1.06358398e+02 6.26339989e+01</_>
    <_>
      5.95839996e+01 4.21832008e+01</_>
    <_>
      1.67647991e+01 3.15400009e+01</_>
    <_>
      1.07584000e+01 3.19671993e+01</_>
    <_>
      1.11271202e+02 6.49456024e+01</_>
    <_>
      1.08603996e+02 7.30727997e+01</_>
    <_>
      1.09524399e+02 7.35136032e+01</_>
    <_>
      1.11045601e+02 7.02004013e+01</_>
    <_>
      1.01358002e+02 5.56108017e+01</_>
    <_>
      5.38188019e+01 3.88359985e+01</_>
    <_>
      1.25047998e+01 3.16711998e+01</_>
    <_>
      1.22223997e+01 3.24412003e+01</_>
    <_>
      1.51244001e+01 3.26108017e+01</_>
    <_>
      7.86019974e+01 3.86119995e+01</_>
    <_>
      7.44227982e+01 5.33268013e+01</_>
    <_>
      5.13135986e+01 4.15135994e+01</_>
    <_>
      1.38908005e+01 9.12679958e+00</_>
    <_>
      8.72440033e+01 4.10803986e+01</_>
    <_>
      8.87244034e+01 1.11180000e+01</_>
    <_>
      8.33868027e+01 5.97476006e+01</_>
    <_>
      9.48707962e+01 4.50204010e+01</_>
    <_>
      3.97723999e+01 2.39211998e+01</_>
    <_>
      2.53616009e+01 1.37664003e+01</_>
    <_>
      8.73552017e+01 2.83803997e+01</_>
    <_>
      9.01880035e+01 1.85776005e+01</_>
    <_>
      9.29023972e+01 4.59119987e+00</_>
    <_>
      1.53016403e+02 2.90639997e+00</_>
    <_>
      6.99680023e+01 7.17643967e+01</_>
    <_>
      9.61607971e+01 3.29276009e+01</_>
    <_>
      9.18127975e+01 4.28451996e+01</_>
    <_>
      8.49940033e+01 3.35471992e+01</_>
    <_>
      7.07612000e+01 2.78484001e+01</_>
    <_>
      7.66439972e+01 2.23647995e+01</_>
    <_>
      9.31719971e+01 3.09731998e+01</_>
    <_>
      9.72063980e+01 1.04343996e+01</_>
    <_>
      6.88944016e+01 6.35964012e+01</_>
    <_>
      9.64996033e+01 5.59000015e+01</_>
    <_>
      7.75808029e+01 4.57243996e+01</_>
    <_>
      1.00053596e+02 5.48324013e+01</_>
    <_>
      9.89431992e+01 3.46808014e+01</_>
    <_>
      1.08620003e+02 1.72215996e+01</_>
    <_>
      1.35366806e+02 3.29320002e+00</_>
    <_>
      1.47228806e+02 8.06200027e+00</_>
    <_>
      7.78527985e+01 4.29924011e+01</_>
    <_>
      7.27572021e+01 3.13248005e+01</_>
    <_>
      7.88359985e+01 2.54368000e+01</_>
    <_>
      9.89563980e+01 7.46368027e+01</_>
    <_>
      1.05697998e+02 5.94959984e+01</_>
    <_>
      1.00016800e+02 2.89064007e+01</_>
    <_>
      4.36408005e+01 4.16567993e+01</_>
    <_>
      3.29552002e+01 3.97276001e+01</_>
    <_>
      4.41367989e+01 4.45523987e+01</_>
    <_>
      4.13723984e+01 3.96391983e+01</_>
    <_>
      5.26739998e+01 3.88440018e+01</_>
    <_>
      7.75016022e+01 7.99056015e+01</_>
    <_>
      7.84935989e+01 7.05943985e+01</_>
    <_>
      8.07152023e+01 4.08908005e+01</_>
    <_>
      8.00848007e+01 4.22452011e+01</_>
    <_>
      8.21019974e+01 4.14119987e+01</_>
    <_>
      8.42491989e+01 5.06408005e+01</_>
    <_>
      5.64452019e+01 2.26692009e+01</_>
    <_>
      7.00316010e+01 5.29360008e+01</_>
    <_>
      9.98303986e+01 4.40912018e+01</_>
    <_>
      1.94108009e+01 8.55363998e+01</_>
    <_>
      2.03924007e+01 7.16144028e+01</_>
    <_>
      1.87056007e+01 5.99291992e+01</_>
    <_>
      1.76107998e+01 4.72248001e+01</_>
    <_>
      1.73216000e+01 5.08236008e+01</_>
    <_>
      1.73575993e+01 4.41668015e+01</_>
    <_>
      2.03428001e+01 6.24168015e+01</_>
    <_>
      1.88348007e+01 7.03616028e+01</_>
    <_>
      1.82292004e+01 6.92587967e+01</_>
    <_>
      1.62495995e+01 4.62276001e+01</_>
    <_>
      2.72283993e+01 1.93040009e+01</_>
    <_>
      3.79300003e+01 1.83911991e+01</_>
    <_>
      4.41220016e+01 1.76072006e+01</_>
    <_>
      2.02119999e+01 6.99756012e+01</_>
    <_>
      2.01667995e+01 6.66035995e+01</_>
    <_>
      1.00707998e+01 2.05991993e+01</_>
    <_>
      9.21720028e+00 1.85487995e+01</_>
    <_>
      9.64360046e+00 1.63243999e+01</_>
    <_>
      1.96760006e+01 8.80416031e+01</_>
    <_>
      2.08703995e+01 6.89835968e+01</_>
    <_>
      1.71520004e+01 5.31104012e+01</_>
    <_>
      1.12100000e+01 1.77364006e+01</_>
    <_>
      2.01763992e+01 8.30859985e+01</_>
    <_>
      1.03171997e+01 2.89011993e+01</_>
    <_>
      1.30108004e+01 3.06147995e+01</_>
    <_>
      9.51679993e+00 2.62812004e+01</_>
    <_>
      1.04756002e+01 1.94412003e+01</_>
    <_>
      1.10403996e+01 2.64228001e+01</_>
    <_>
      1.24172001e+01 2.85776005e+01</_>
    <_>
      1.10768003e+01 2.80464001e+01</_>
    <_>
      1.23599997e+01 2.56723995e+01</_>
    <_>
      1.13571997e+01 2.28920002e+01</_>
    <_>
      1.37368002e+01 2.52656002e+01</_>
    <_>
      1.23747997e+01 2.67707996e+01</_>
    <_>
      1.39840002e+01 2.61991997e+01</_>
    <_>
      1.38923998e+01 2.61884003e+01</_>
    <_>
      1.40319996e+01 2.41051998e+01</_>
    <_>
      1.71959991e+01 1.98504009e+01</_>
    <_>
      1.47279997e+01 2.67464008e+01</_>
    <_>
      1.42296000e+01 2.58652000e+01</_>
    <_>
      1.52307997e+01 2.28752003e+01</_>
    <_>
      1.67971992e+01 1.93012009e+01</_>
    <_>
      2.20004005e+01 1.83532009e+01</_>
    <_>
      1.54611998e+01 2.64936008e+01</_>
    <_>
      1.61375999e+01 2.56543999e+01</_>
    <_>
      1.57903996e+01 2.03351994e+01</_>
    <_>
      1.61420002e+01 1.84104004e+01</_>
    <_>
      1.39705994e+02 1.83523998e+01</_>
    <_>
      165. 2.</_>
    <_>
      1.50091202e+02 2.09200001e+00</_>
    <_>
      9.12559967e+01 2.38959999e+01</_>
    <_>
      1.18369598e+02 2.60188007e+01</_>
    <_>
      1.21901604e+02 1.16991997e+01</_>
    <_>
      1.12391197e+02 4.00759983e+00</_>
    <_>
      1.08398804e+02 9.71440029e+00</_>
    <_>
      1.04469597e+02 2.37775993e+01</_>
    <_>
      9.94776001e+01 3.68468018e+01</_>
    <_>
      1.54919998e+02 2.05240011e+00</_>
    <_>
      1.42751205e+02 1.90520000e+00</_>
    <_>
      7.06699982e+01 2.41604004e+01</_>
    <_>
      1.33198395e+02 9.27159977e+00</_>
    <_>
      1.24524002e+02 4.09719992e+00</_>
    <_>
      1.06103203e+02 6.69000006e+00</_>
    <_>
      9.98275986e+01 4.70559978e+00</_>
    <_>
      9.65823975e+01 6.21000004e+00</_>
    <_>
      1.07997200e+02 6.96648026e+01</_>
    <_>
      8.97192001e+01 3.60015984e+01</_>
    <_>
      7.90711975e+01 3.70747986e+01</_>
    <_>
      1.31256805e+02 1.40735998e+01</_>
    <_>
      1.44579193e+02 6.63600016e+00</_>
    <_>
      1.10334396e+02 8.76840019e+00</_>
    <_>
      7.86740036e+01 1.41664000e+01</_>
    <_>
      1.20179604e+02 5.73839998e+00</_>
    <_>
      1.09575996e+02 6.38360023e+00</_>
    <_>
      1.07851997e+02 5.41839981e+00</_>
    <_>
      1.02646797e+02 4.01440010e+01</_>
    <_>
      6.76228027e+01 1.60536003e+01</_>
    <_>
      3.81896019e+01 6.24832001e+01</_>
    <_>
      1.08971603e+02 9.41123962e+01</_>
    <_>
      1.12010002e+02 8.53435974e+01</_>
    <_>
      9.69944000e+01 8.69036026e+01</_>
    <_>
      1.17720398e+02 2.92940006e+01</_>
    <_>
      1.54387207e+02 9.93280029e+00</_>
    <_>
      1.42140396e+02 4.84079981e+00</_>
    <_>
      1.09276001e+02 3.20400000e+00</_>
    <_>
      1.27926399e+02 2.67359996e+00</_>
    <_>
      7.58911972e+01 3.63680005e+00</_>
    <_>
      8.65548019e+01 4.98000002e+00</_>
    <_>
      8.80591965e+01 3.80288010e+01</_>
    <_>
      6.49940033e+01 9.32639980e+00</_>
    <_>
      5.39147987e+01 4.03363991e+01</_>
    <_>
      9.10744019e+01 8.78376007e+01</_>
    <_>
      1.04121597e+02 1.85855999e+01</_>
    <_>
      1.37712006e+02 5.43400002e+00</_>
    <_>
      1.31528000e+02 1.11471996e+01</_>
    <_>
      2.58355999e+01 2.34256001e+01</_>
    <_>
      7.55436020e+01 1.67672005e+01</_>
    <_>
      9.83628006e+01 1.27208004e+01</_>
    <_>
      4.90628014e+01 2.01128006e+01</_>
    <_>
      5.92551994e+01 3.79588013e+01</_>
    <_>
      1.06491203e+02 4.23128014e+01</_>
    <_>
      1.13774002e+02 4.76604004e+01</_>
    <_>
      1.04936798e+02 3.93219986e+01</_>
    <_>
      5.55796013e+01 3.91808014e+01</_>
    <_>
      6.79400024e+01 3.24235992e+01</_>
    <_>
      7.73476028e+01 9.14640045e+00</_>
    <_>
      8.80268021e+01 2.32612000e+01</_>
    <_>
      4.47252007e+01 4.63176003e+01</_>
    <_>
      2.76203995e+01 6.69988022e+01</_>
    <_>
      4.36180000e+01 7.02323990e+01</_>
    <_>
      3.03943996e+01 7.82155991e+01</_>
    <_>
      2.50340004e+01 8.44644012e+01</_>
    <_>
      5.84928017e+01 4.26660004e+01</_>
    <_>
      4.67467995e+01 4.95019989e+01</_>
    <_>
      2.14036007e+01 3.85923996e+01</_>
    <_>
      2.65632000e+01 4.85863991e+01</_>
    <_>
      2.01879997e+01 4.40015984e+01</_>
    <_>
      3.27360001e+01 3.15508003e+01</_>
    <_>
      7.15403976e+01 1.90191994e+01</_>
    <_>
      2.77812004e+01 3.50288010e+01</_>
    <_>
      3.50667992e+01 2.34796009e+01</_>
    <_>
      2.12956009e+01 3.27971992e+01</_>
    <_>
      1.83691998e+01 5.80691986e+01</_>
    <_>
      2.10067997e+01 9.90296021e+01</_>
    <_>
      2.09591999e+01 9.42608032e+01</_>
    <_>
      2.16408005e+01 3.54879990e+01</_>
    <_>
      2.34528008e+01 3.84015999e+01</_>
    <_>
      2.21060009e+01 3.18183994e+01</_>
    <_>
      4.52396011e+01 1.68519993e+01</_>
    <_>
      2.94811993e+01 3.38748016e+01</_>
    <_>
      2.43883991e+01 2.83775997e+01</_>
    <_>
      3.69875984e+01 1.79267998e+01</_>
    <_>
      2.82784004e+01 3.40971985e+01</_>
    <_>
      1.88419991e+01 7.02320023e+01</_>
    <_>
      2.05939999e+01 9.79751968e+01</_>
    <_>
      2.09027996e+01 1.02100800e+02</_>
    <_>
      2.13840008e+01 8.91819992e+01</_>
    <_>
      2.04955997e+01 3.95075989e+01</_>
    <_>
      2.20412006e+01 3.63456001e+01</_>
    <_>
      4.05912018e+01 1.98080006e+01</_>
    <_>
      3.25084000e+01 1.93012009e+01</_>
    <_>
      3.54396019e+01 1.76236000e+01</_>
    <_>
      5.40600014e+01 1.67856007e+01</_>
    <_>
      1.94923992e+01 4.11780014e+01</_>
    <_>
      1.88992004e+01 6.05716019e+01</_>
    <_>
      2.03467999e+01 7.01355972e+01</_>
    <_>
      2.07308006e+01 8.23224030e+01</_>
    <_>
      2.11352005e+01 9.40724030e+01</_>
    <_>
      2.11828003e+01 9.84311981e+01</_>
    <_>
      1.83743992e+01 4.20096016e+01</_>
    <_>
      2.25963993e+01 3.80267982e+01</_>
    <_>
      2.52028008e+01 3.06116009e+01</_>
    <_>
      3.78919983e+01 1.81091995e+01</_>
    <_>
      7.55887985e+01 1.30447998e+01</_>
    <_>
      6.97651978e+01 2.23307991e+01</_>
    <_>
      2.66700001e+01 3.66643982e+01</_>
    <_>
      1.69192009e+01 5.36136017e+01</_>
    <_>
      1.74740009e+01 5.65256004e+01</_>
    <_>
      1.89615993e+01 5.92291985e+01</_>
    <_>
      2.08967991e+01 6.89160004e+01</_>
    <_>
      1.92779999e+01 3.96815987e+01</_>
    <_>
      3.13395996e+01 2.28463993e+01</_>
    <_>
      5.38832016e+01 1.17192001e+01</_>
    <_>
      8.60444031e+01 1.82663994e+01</_>
    <_>
      4.35536003e+01 3.06763992e+01</_>
    <_>
      3.66647987e+01 3.14039993e+01</_>
    <_>
      1.49396000e+01 4.44536018e+01</_>
    <_>
      1.68332005e+01 5.05923996e+01</_>
    <_>
      1.66243992e+01 5.27639999e+01</_>
    <_>
      1.77903996e+01 5.21108017e+01</_>
    <_>
      4.80824013e+01 1.27379999e+01</_>
    <_>
      6.54812012e+01 9.80799961e+00</_>
    <_>
      5.17904015e+01 2.57124004e+01</_>
    <_>
      1.73024006e+01 3.65232010e+01</_>
    <_>
      4.19696007e+01 3.01723995e+01</_>
    <_>
      2.13808002e+01 4.25428009e+01</_>
    <_>
      1.69776001e+01 5.11040001e+01</_>
    <_>
      6.25079994e+01 7.27320004e+00</_>
    <_>
      5.67172012e+01 1.56728001e+01</_>
    <_>
      6.17683983e+01 2.59319992e+01</_>
    <_>
      4.91052017e+01 2.90948009e+01</_>
    <_>
      2.04979992e+01 4.22935982e+01</_>
    <_>
      1.66259995e+01 4.92439995e+01</_>
    <_>
      1.96112003e+01 3.69752007e+01</_>
    <_>
      2.80091991e+01 3.24239998e+01</_>
    <_>
      2.75291996e+01 3.39560013e+01</_>
    <_>
      5.53572006e+01 2.67276001e+01</_>
    <_>
      2.23943996e+01 4.01839981e+01</_>
    <_>
      1.47603998e+01 4.75915985e+01</_>
    <_>
      1.65671997e+01 5.41360016e+01</_>
    <_>
      1.69988003e+01 4.79216003e+01</_>
    <_>
      1.66079998e+01 3.70624008e+01</_>
    <_>
      5.41548004e+01 2.30112000e+01</_>
    <_>
      2.32268009e+01 3.85727997e+01</_>
    <_>
      5.90424004e+01 2.21576004e+01</_>
    <_>
      2.24936008e+01 3.68468018e+01</_>
    <_>
      1.53352003e+01 5.09067993e+01</_>
    <_>
      1.64799995e+01 3.78128014e+01</_>
    <_>
      5.90404015e+01 1.90032005e+01</_>
    <_>
      2.35708008e+01 3.54119987e+01</_>
    <_>
      6.84952011e+01 1.63143997e+01</_>
    <_>
      2.15711994e+01 3.59924011e+01</_>
    <_>
      1.62040005e+01 3.92011986e+01</_>
    <_>
      1.49211998e+01 4.25120010e+01</_>
    <_>
      1.54312000e+01 4.90632019e+01</_>
    <_>
      1.53959999e+01 4.95316010e+01</_>
    <_>
      1.83192005e+01 3.66132011e+01</_>
    <_>
      1.74827995e+01 4.06916008e+01</_>
    <_>
      1.57452002e+01 5.27876015e+01</_>
    <_>
      1.64683990e+01 5.30275993e+01</_>
    <_>
      1.67031994e+01 3.92564011e+01</_>
    <_>
      1.58663998e+01 4.09031982e+01</_>
    <_>
      1.63311996e+01 4.47204018e+01</_>
    <_>
      1.61728001e+01 4.66087990e+01</_>
    <_>
      1.55363998e+01 4.58720016e+01</_>
    <_>
      1.60919991e+01 5.16195984e+01</_>
    <_>
      1.75587997e+01 5.09928017e+01</_>
    <_>
      1.19211601e+02 1.85436001e+01</_>
    <_>
      1.08701599e+02 3.19267998e+01</_>
    <_>
      1.04502403e+02 2.90048008e+01</_>
    <_>
      1.02107201e+02 3.28656006e+01</_>
    <_>
      1.28509598e+02 1.27676001e+01</_>
    <_>
      1.22893600e+02 8.40839958e+00</_>
    <_>
      1.04975601e+02 4.74420013e+01</_>
    <_>
      1.05527199e+02 5.03608017e+01</_>
    <_>
      1.06536003e+02 1.68043995e+01</_>
    <_>
      1.02636398e+02 1.51372004e+01</_>
    <_>
      1.03040802e+02 2.12119999e+01</_>
    <_>
      1.15533600e+02 6.28560019e+00</_>
    <_>
      1.13790001e+02 9.23040009e+00</_>
    <_>
      1.07884003e+02 1.41059999e+01</_>
    <_>
      1.04889603e+02 3.53983994e+01</_>
    <_>
      1.57296799e+02 2.16520000e+00</_>
    <_>
      1.01335999e+02 8.65079975e+00</_>
    <_>
      7.82572021e+01 1.20567999e+01</_>
    <_>
      5.97164001e+01 1.55036001e+01</_>
    <_>
      8.69515991e+01 1.35836000e+01</_>
    <_>
      7.76663971e+01 1.17072001e+01</_>
    <_>
      1.01687599e+02 5.28840017e+00</_>
    <_>
      8.21116028e+01 4.51468010e+01</_>
    <_>
      6.12319984e+01 2.15923996e+01</_>
    <_>
      2.83076000e+01 3.58047981e+01</_>
    <_>
      4.64147987e+01 3.11275997e+01</_>
    <_>
      7.89140015e+01 1.76135998e+01</_>
    <_>
      1.02374397e+02 1.31260004e+01</_>
    <_>
      1.09768799e+02 1.62660007e+01</_>
    <_>
      1.06386398e+02 3.35064011e+01</_>
    <_>
      8.41875992e+01 3.96216011e+01</_>
    <_>
      1.40949203e+02 1.24560003e+01</_>
    <_>
      1.40914398e+02 2.12859993e+01</_>
    <_>
      1.23439598e+02 1.13492002e+01</_>
    <_>
      3.45260010e+01 4.47323990e+01</_>
    <_>
      7.63871994e+01 1.46831999e+01</_>
    <_>
      9.87076035e+01 3.86524010e+01</_>
    <_>
      7.84456024e+01 3.16128006e+01</_>
    <_>
      8.10579987e+01 3.49851990e+01</_>
    <_>
      1.26242798e+02 3.41352005e+01</_>
    <_>
      1.13737602e+02 3.55716019e+01</_>
    <_>
      8.32259979e+01 9.38640022e+00</_>
    <_>
      5.93987999e+01 3.04307995e+01</_>
    <_>
      4.67788010e+01 4.10284004e+01</_>
    <_>
      9.72575989e+01 2.80531998e+01</_>
    <_>
      9.45727997e+01 2.40279999e+01</_>
    <_>
      9.31027985e+01 1.99444008e+01</_>
    <_>
      8.17244034e+01 2.78164005e+01</_>
    <_>
      5.95307999e+01 3.85639992e+01</_>
    <_>
      4.87743988e+01 4.69399986e+01</_>
    <_>
      4.66020012e+01 5.31944008e+01</_>
    <_>
      3.61496010e+01 5.10211983e+01</_>
    <_>
      3.25032005e+01 5.19552002e+01</_>
    <_>
      5.65096016e+01 4.08912010e+01</_>
    <_>
      5.22592010e+01 2.78987999e+01</_>
    <_>
      4.23471985e+01 3.00375996e+01</_>
    <_>
      2.94500008e+01 3.60772018e+01</_>
    <_>
      2.70200005e+01 3.72000008e+01</_>
    <_>
      3.02556000e+01 1.65076008e+01</_>
    <_>
      5.75116005e+01 1.02964001e+01</_>
    <_>
      4.75760002e+01 7.07359982e+00</_>
    <_>
      3.53339996e+01 7.22879982e+00</_>
    <_>
      2.83127995e+01 5.92040014e+00</_>
    <_>
      2.88027992e+01 1.96651993e+01</_>
    <_>
      2.75408001e+01 2.10503998e+01</_>
    <_>
      2.73439999e+01 2.88560009e+01</_>
    <_>
      2.48803997e+01 3.21468010e+01</_>
    <_>
      6.79303970e+01 4.94000006e+00</_>
    <_>
      3.04039993e+01 1.57136002e+01</_>
    <_>
      2.41676006e+01 2.38015995e+01</_>
    <_>
      2.63784008e+01 1.87143993e+01</_>
    <_>
      5.14171982e+01 2.05704002e+01</_>
    <_>
      2.78504009e+01 1.30312004e+01</_>
    <_>
      5.03531990e+01 1.24740000e+01</_>
    <_>
      6.07123985e+01 1.95804005e+01</_>
    <_>
      5.61847992e+01 1.75072002e+01</_>
    <_>
      4.82588005e+01 1.87140007e+01</_>
    <_>
      4.98891983e+01 1.98728008e+01</_>
    <_>
      3.00144005e+01 2.70028000e+01</_>
    <_>
      1.60524006e+01 4.21248016e+01</_>
    <_>
      2.02712002e+01 8.18048019e+01</_>
    <_>
      3.29007988e+01 1.08627996e+01</_>
    <_>
      3.58895988e+01 1.01392002e+01</_>
    <_>
      4.78632011e+01 1.42868004e+01</_>
    <_>
      5.75992012e+01 1.64612007e+01</_>
    <_>
      3.84616013e+01 3.46643982e+01</_>
    <_>
      2.09748001e+01 7.64820023e+01</_>
    <_>
      7.50719986e+01 1.08308001e+01</_>
    <_>
      7.54675980e+01 2.15471992e+01</_>
    <_>
      5.48023987e+01 3.17392006e+01</_>
    <_>
      6.35603981e+01 7.08559990e+00</_>
    <_>
      7.81719971e+01 1.19280005e+01</_>
    <_>
      9.17847977e+01 2.37812004e+01</_>
    <_>
      5.38524017e+01 3.28456001e+01</_>
    <_>
      1.56331997e+01 4.39459991e+01</_>
    <_>
      1.08773598e+02 1.72600002e+01</_>
    <_>
      3.69700012e+01 2.96348000e+01</_>
    <_>
      1.25427999e+01 4.02599983e+01</_>
    <_>
      1.54139996e+01 4.31128006e+01</_>
    <_>
      2.35779991e+01 3.41559982e+01</_>
    <_>
      1.26884003e+01 4.36320000e+01</_>
    <_>
      1.54983997e+01 4.82036018e+01</_>
    <_>
      1.22452002e+01 4.12876015e+01</_>
    <_>
      1.23456001e+01 4.23852005e+01</_>
    <_>
      1.46415997e+01 3.63255997e+01</_>
    <_>
      1.36400003e+01 4.43100014e+01</_>
    <_>
      1.37327995e+01 3.51259995e+01</_>
    <_>
      1.35355997e+01 3.87620010e+01</_>
    <_>
      1.49139996e+01 3.35028000e+01</_>
    <_>
      1.46507998e+01 4.59696007e+01</_>
    <_>
      1.04844803e+02 1.02474800e+02</_>
    <_>
      1.22321999e+02 6.10204010e+01</_>
    <_>
      1.56421997e+02 8.12180023e+01</_>
    <_>
      1.63858398e+02 9.48280029e+01</_>
    <_>
      1.69673203e+02 1.00834396e+02</_>
    <_>
      1.68246399e+02 1.03124001e+02</_>
    <_>
      7.44107971e+01 3.46307983e+01</_>
    <_>
      5.88884010e+01 2.66748009e+01</_>
    <_>
      5.43255997e+01 1.78068008e+01</_>
    <_>
      6.96380005e+01 2.50088005e+01</_>
    <_>
      8.17279968e+01 3.72484016e+01</_>
    <_>
      1.35895203e+02 9.11371994e+01</_>
    <_>
      1.64275208e+02 1.42236404e+02</_>
    <_>
      1.67773605e+02 1.54797607e+02</_>
    <_>
      1.73702393e+02 1.80863602e+02</_>
    <_>
      1.09792000e+02 7.20011978e+01</_>
    <_>
      6.35583992e+01 1.97007999e+01</_>
    <_>
      7.69364014e+01 3.49427986e+01</_>
    <_>
      4.49199982e+01 1.45956001e+01</_>
    <_>
      6.02008018e+01 2.32439995e+01</_>
    <_>
      5.56655998e+01 2.01219997e+01</_>
    <_>
      4.13787994e+01 1.20740004e+01</_>
    <_>
      4.51896019e+01 1.36272001e+01</_>
    <_>
      1.38631195e+02 9.03852005e+01</_>
    <_>
      1.72695999e+02 1.76364395e+02</_>
    <_>
      1.09859200e+02 6.88155975e+01</_>
    <_>
      1.03763199e+02 9.85299988e+01</_>
    <_>
      9.69380035e+01 4.39056015e+01</_>
    <_>
      8.40064011e+01 5.70267982e+01</_>
    <_>
      5.97967987e+01 3.28936005e+01</_>
    <_>
      9.66936035e+01 2.37115993e+01</_>
    <_>
      2.25540009e+01 8.09519958e+00</_>
    <_>
      2.44951992e+01 6.88439989e+00</_>
    <_>
      2.02619991e+01 5.12799978e+00</_>
    <_>
      1.61567993e+01 6.55480003e+00</_>
    <_>
      1.36979202e+02 8.47203979e+01</_>
    <_>
      1.74800797e+02 1.78155197e+02</_>
    <_>
      1.75123596e+02 1.83229599e+02</_>
    <_>
      1.07503197e+02 5.71580009e+01</_>
    <_>
      1.03934799e+02 9.14143982e+01</_>
    <_>
      9.91119995e+01 4.71339989e+01</_>
    <_>
      8.94876022e+01 8.41852036e+01</_>
    <_>
      4.44827995e+01 5.28679991e+00</_>
    <_>
      3.22775993e+01 6.32480001e+00</_>
    <_>
      1.83967991e+01 1.90911999e+01</_>
    <_>
      3.91627998e+01 7.28000021e+00</_>
    <_>
      5.17616005e+01 2.50527992e+01</_>
    <_>
      1.02594803e+02 7.56075974e+01</_>
    <_>
      1.74155197e+02 1.74485596e+02</_>
    <_>
      1.75574402e+02 1.86757202e+02</_>
    <_>
      1.08942398e+02 1.05360397e+02</_>
    <_>
      1.03802002e+02 1.35942398e+02</_>
    <_>
      1.01221603e+02 9.78647995e+01</_>
    <_>
      1.06407600e+02 1.12479202e+02</_>
    <_>
      1.03814003e+02 1.78965607e+02</_>
    <_>
      1.05375603e+02 1.51892004e+01</_>
    <_>
      1.29928406e+02 6.29452019e+01</_>
    <_>
      1.18537201e+02 4.12116013e+01</_>
    <_>
      8.25772018e+01 3.39916000e+01</_>
    <_>
      1.15142799e+02 8.03239975e+01</_>
    <_>
      1.76328003e+02 1.94568405e+02</_>
    <_>
      1.08363998e+02 8.32623978e+01</_>
    <_>
      9.80167999e+01 6.49128036e+01</_>
    <_>
      9.32956009e+01 1.00019600e+02</_>
    <_>
      9.61688004e+01 8.35940018e+01</_>
    <_>
      1.00429604e+02 1.50338806e+02</_>
    <_>
      1.57268799e+02 1.73893204e+02</_>
    <_>
      8.48132019e+01 1.87320004e+01</_>
    <_>
      5.45547981e+01 5.03212013e+01</_>
    <_>
      9.44535980e+01 8.83311996e+01</_>
    <_>
      1.76385193e+02 1.88473602e+02</_>
    <_>
      1.77323593e+02 1.90694000e+02</_>
    <_>
      1.77246796e+02 1.98109207e+02</_>
    <_>
      2.47159996e+01 4.31259995e+01</_>
    <_>
      1.88099995e+01 5.10155983e+01</_>
    <_>
      1.87735996e+01 5.23591995e+01</_>
    <_>
      1.55283997e+02 1.88429596e+02</_>
    <_>
      4.31688004e+01 6.69000015e+01</_>
    <_>
      3.90368004e+01 2.59815998e+01</_>
    <_>
      2.95636005e+01 2.49323997e+01</_>
    <_>
      2.82639999e+01 2.33096008e+01</_>
    <_>
      2.19312000e+01 9.14000015e+01</_>
    <_>
      2.29776001e+01 5.12080002e+01</_>
    <_>
      4.31811981e+01 6.17028008e+01</_>
    <_>
      7.95227966e+01 3.52532005e+01</_>
    <_>
      7.98423996e+01 3.32900009e+01</_>
    <_>
      4.82816010e+01 1.09219999e+01</_>
    <_>
      6.94176025e+01 8.94899979e+01</_>
    <_>
      1.62139603e+02 1.96286407e+02</_>
    <_>
      1.63610794e+02 1.99885605e+02</_>
    <_>
      2.09871998e+01 5.49483986e+01</_>
    <_>
      2.13444004e+01 5.25351982e+01</_>
    <_>
      1.96772003e+01 4.43436012e+01</_>
    <_>
      6.36119986e+00 2.24503994e+01</_>
    <_>
      7.17159986e+00 2.14948006e+01</_>
    <_>
      6.71539993e+01 4.43064003e+01</_>
    <_>
      1.30001999e+02 1.10091599e+02</_>
    <_>
      1.65250397e+02 1.98653198e+02</_>
    <_>
      1.72175201e+02 2.05757599e+02</_>
    <_>
      1.95568008e+01 4.80564003e+01</_>
    <_>
      1.57208004e+01 3.50155983e+01</_>
    <_>
      3.70947990e+01 3.19055996e+01</_>
    <_>
      1.23954803e+02 1.13442802e+02</_>
    <_>
      1.77585602e+02 2.03634796e+02</_>
    <_>
      1.73878799e+02 2.03840393e+02</_>
    <_>
      1.76175995e+01 3.33320007e+01</_>
    <_>
      9.04552002e+01 4.57312012e+01</_>
    <_>
      1.10579201e+02 5.87148018e+01</_>
    <_>
      1.11101997e+02 6.58827972e+01</_>
    <_>
      1.02246399e+02 6.13768005e+01</_>
    <_>
      9.10347977e+01 5.64347992e+01</_>
    <_>
      7.91679993e+01 5.21692009e+01</_>
    <_>
      6.82676010e+01 4.48815994e+01</_>
    <_>
      5.44360008e+01 4.04984016e+01</_>
    <_>
      4.32575989e+01 3.50127983e+01</_>
    <_>
      3.38163986e+01 3.23199997e+01</_>
    <_>
      1.61099197e+02 2.01465195e+02</_>
    <_>
      166. 2.03880798e+02</_>
    <_>
      1.69173599e+02 2.03484802e+02</_>
    <_>
      1.87052002e+01 3.45971985e+01</_>
    <_>
      1.43383999e+01 2.31623993e+01</_>
    <_>
      2.96324005e+01 2.80596008e+01</_>
    <_>
      5.12448006e+01 3.76044006e+01</_>
    <_>
      7.28583984e+01 4.84536018e+01</_>
    <_>
      9.14199982e+01 5.52243996e+01</_>
    <_>
      1.08438400e+02 6.46175995e+01</_>
    <_>
      1.13078400e+02 6.87091980e+01</_>
    <_>
      1.14578003e+02 6.48015976e+01</_>
    <_>
      1.16951599e+02 5.98807983e+01</_>
    <_>
      1.18630402e+02 5.25600014e+01</_>
    <_>
      1.48241592e+02 1.12746803e+02</_>
    <_>
      1.50434402e+02 2.00872803e+02</_>
    <_>
      1.57940796e+02 2.02860001e+02</_>
    <_>
      1.66207993e+02 2.01501602e+02</_>
    <_>
      1.56759996e+01 2.95699997e+01</_>
    <_>
      8.79520035e+00 2.21987991e+01</_>
    <_>
      1.41624002e+01 2.75792007e+01</_>
    <_>
      2.62651997e+01 3.15492001e+01</_>
    <_>
      4.59239998e+01 3.67700005e+01</_>
    <_>
      6.32863998e+01 4.18520012e+01</_>
    <_>
      8.07824020e+01 4.22403984e+01</_>
    <_>
      1.50554794e+02 1.09380402e+02</_>
    <_>
      1.73990799e+02 1.59480804e+02</_>
    <_>
      1.75399200e+02 1.91624405e+02</_>
    <_>
      1.66688004e+01 2.46172009e+01</_>
    <_>
      8.71599960e+00 3.13139992e+01</_>
    <_>
      2.78416004e+01 3.54892006e+01</_>
    <_>
      4.93839989e+01 5.18436012e+01</_>
    <_>
      1.43591995e+01 2.20223999e+01</_>
    <_>
      1.50920000e+01 2.55039997e+01</_>
    <_>
      1.93523998e+01 2.50004005e+01</_>
    <_>
      1.97495995e+01 2.68188000e+01</_>
    <_>
      2.29064007e+01 2.58444004e+01</_>
    <_>
      1.10752001e+01 2.15963993e+01</_>
    <_>
      1.51208000e+01 2.09239998e+01</_>
    <_>
      1.67099991e+01 2.28747997e+01</_>
    <_>
      1.52559996e+01 2.41399994e+01</_>
    <_>
      2.36436005e+01 2.52388000e+01</_>
    <_>
      2.26560001e+01 2.74591999e+01</_>
    <_>
      1.45248003e+01 2.84615993e+01</_>
    <_>
      3.43544006e+01 2.39619999e+01</_>
    <_>
      1.24463997e+01 2.07215996e+01</_>
    <_>
      1.38879995e+01 2.29279995e+01</_>
    <_>
      1.94136009e+01 2.74636002e+01</_>
    <_>
      2.16000004e+01 2.48372002e+01</_>
    <_>
      1.25411997e+01 2.20655994e+01</_>
    <_>
      2.29692001e+01 2.11804008e+01</_>
    <_>
      1.29856005e+01 2.78043995e+01</_>
    <_>
      2.59132004e+01 2.35079994e+01</_>
    <_>
      1.36431999e+01 2.06191998e+01</_>
    <_>
      2.05291996e+01 2.21844006e+01</_>
    <_>
      1.56379995e+01 2.16664009e+01</_>
    <_>
      3.02999992e+01 2.44743996e+01</_>
    <_>
      2.05512009e+01 2.82619991e+01</_>
    <_>
      2.59379997e+01 2.65167999e+01</_>
    <_>
      3.00128002e+01 2.82343998e+01</_>
    <_>
      1.58000002e+01 2.75664005e+01</_>
    <_>
      3.25932007e+01 2.39804001e+01</_>
    <_>
      1.08897202e+02 2.59503994e+01</_>
    <_>
      1.06043198e+02 6.64632034e+01</_>
    <_>
      1.05620796e+02 7.42992020e+01</_>
    <_>
      1.05208801e+02 7.63132019e+01</_>
    <_>
      1.05694801e+02 6.31604004e+01</_>
    <_>
      1.05989601e+02 5.71324005e+01</_>
    <_>
      1.13451202e+02 2.75163994e+01</_>
    <_>
      1.00147598e+02 6.35323982e+01</_>
    <_>
      1.04711998e+02 6.02256012e+01</_>
    <_>
      8.32264023e+01 5.20204010e+01</_>
    <_>
      1.01601196e+02 5.64483986e+01</_>
    <_>
      1.16079597e+02 2.55396004e+01</_>
    <_>
      1.07461998e+02 4.74155998e+01</_>
    <_>
      9.76808014e+01 4.96124001e+01</_>
    <_>
      9.31903992e+01 4.73019981e+01</_>
    <_>
      8.97639999e+01 5.61104012e+01</_>
    <_>
      8.12827988e+01 5.76912003e+01</_>
    <_>
      9.04275970e+01 6.02400017e+01</_>
    <_>
      8.94739990e+01 4.69235992e+01</_>
    <_>
      5.34931984e+01 6.34700012e+01</_>
    <_>
      8.23160019e+01 4.30200005e+01</_>
    <_>
      1.07159599e+02 3.88779984e+01</_>
    <_>
      1.13785202e+02 3.02612000e+01</_>
    <_>
      9.41299973e+01 4.13499985e+01</_>
    <_>
      8.36796036e+01 4.70284004e+01</_>
    <_>
      7.28544006e+01 5.18227997e+01</_>
    <_>
      9.37944031e+01 3.74136009e+01</_>
    <_>
      7.18700027e+01 5.55135994e+01</_>
    <_>
      8.71324005e+01 3.38423996e+01</_>
    <_>
      1.09811996e+02 5.25792007e+01</_>
    <_>
      7.96480026e+01 6.79456024e+01</_>
    <_>
      8.72544022e+01 6.86024017e+01</_>
    <_>
      1.03269600e+02 8.83140030e+01</_>
    <_>
      7.63771973e+01 4.19855995e+01</_>
    <_>
      8.54056015e+01 4.43419991e+01</_>
    <_>
      8.59692001e+01 4.74371986e+01</_>
    <_>
      7.24059982e+01 4.57491989e+01</_>
    <_>
      7.92547989e+01 3.43464012e+01</_>
    <_>
      6.48211975e+01 4.84407997e+01</_>
    <_>
      7.19412003e+01 4.35988007e+01</_>
    <_>
      7.23644028e+01 3.62943993e+01</_>
    <_>
      9.45955963e+01 6.28003998e+01</_>
    <_>
      2.17327995e+01 4.05544014e+01</_>
    <_>
      2.57756004e+01 4.48720016e+01</_>
    <_>
      2.33379993e+01 4.68415985e+01</_>
    <_>
      2.85680008e+01 2.71804008e+01</_>
    <_>
      2.56807995e+01 3.91632004e+01</_>
    <_>
      2.72119999e+01 3.56451988e+01</_>
    <_>
      2.38871994e+01 3.02091999e+01</_>
    <_>
      2.34556007e+01 3.32008018e+01</_>
    <_>
      2.73644009e+01 3.30964012e+01</_>
    <_>
      2.78495998e+01 3.38759995e+01</_>
    <_>
      3.00051994e+01 2.73351994e+01</_>
    <_>
      3.00216007e+01 2.77099991e+01</_>
    <_>
      3.23716011e+01 2.73267994e+01</_>
    <_>
      2.80428009e+01 3.17040005e+01</_>
    <_>
      2.44172001e+01 3.58419991e+01</_>
    <_>
      2.18192005e+01 3.45887985e+01</_>
    <_>
      2.14071999e+01 3.55835991e+01</_>
    <_>
      3.42304001e+01 1.84491997e+01</_>
    <_>
      3.19824009e+01 2.48612003e+01</_>
    <_>
      3.51972008e+01 2.19164009e+01</_>
    <_>
      4.17575989e+01 2.16980000e+01</_>
    <_>
      3.36136017e+01 2.29792004e+01</_>
    <_>
      3.33232002e+01 2.93672009e+01</_>
    <_>
      3.20467987e+01 2.91044006e+01</_>
    <_>
      2.77787991e+01 3.11560001e+01</_>
    <_>
      2.45191994e+01 3.86800003e+01</_>
    <_>
      2.03299999e+01 4.14291992e+01</_>
    <_>
      1.80028000e+01 4.62200012e+01</_>
    <_>
      4.87392006e+01 2.43624001e+01</_>
    <_>
      4.31795998e+01 3.16247997e+01</_>
    <_>
      3.76935997e+01 3.44175987e+01</_>
    <_>
      2.83684006e+01 3.89276009e+01</_>
    <_>
      1.82520008e+01 4.41300011e+01</_>
    <_>
      1.35416002e+01 4.85712013e+01</_>
    <_>
      1.38736000e+01 4.29424019e+01</_>
    <_>
      1.39580002e+01 4.14799995e+01</_>
    <_>
      5.97715988e+01 1.92019997e+01</_>
    <_>
      4.43352013e+01 2.68584003e+01</_>
    <_>
      5.64308014e+01 2.87684002e+01</_>
    <_>
      4.74931984e+01 2.51604004e+01</_>
    <_>
      2.83395996e+01 3.01004009e+01</_>
    <_>
      7.92399979e+01 1.68460007e+01</_>
    <_>
      2.16539993e+01 3.30800018e+01</_>
    <_>
      2.14680004e+01 3.52523994e+01</_>
    <_>
      1.53232002e+01 3.75527992e+01</_>
    <_>
      4.65960007e+01 2.65723991e+01</_>
    <_>
      1.74820004e+01 3.29028015e+01</_>
    <_>
      1.46336002e+01 3.83300018e+01</_>
    <_>
      1.46216002e+01 3.96851997e+01</_>
    <_>
      1.22835999e+01 4.52788010e+01</_>
    <_>
      1.26724005e+01 4.61255989e+01</_>
    <_>
      1.31283998e+01 4.73608017e+01</_>
    <_>
      1.36479998e+01 4.57388000e+01</_>
    <_>
      1.36772003e+01 4.03768005e+01</_>
    <_>
      1.37639999e+01 4.94244003e+01</_>
    <_>
      1.49723997e+01 4.12155991e+01</_>
    <_>
      1.50016003e+01 5.04315987e+01</_>
    <_>
      9.39331970e+01 2.80240002e+01</_>
    <_>
      1.16840401e+02 4.02600002e+00</_>
    <_>
      1.02979202e+02 5.41520004e+01</_>
    <_>
      9.76508026e+01 3.04503994e+01</_>
    <_>
      8.78583984e+01 2.11063995e+01</_>
    <_>
      8.87012024e+01 9.79839993e+00</_>
    <_>
      1.37895599e+02 8.91440010e+00</_>
    <_>
      1.59747192e+02 3.41120005e+00</_>
    <_>
      1.41516403e+02 7.08279991e+00</_>
    <_>
      1.32288803e+02 4.27320004e+00</_>
    <_>
      1.03999199e+02 5.62052002e+01</_>
    <_>
      1.01582802e+02 3.64476013e+01</_>
    <_>
      1.12210403e+02 2.03071995e+01</_>
    <_>
      1.01692802e+02 2.20816002e+01</_>
    <_>
      1.05435600e+02 4.54651985e+01</_>
    <_>
      9.99484024e+01 3.08348007e+01</_>
    <_>
      1.39754395e+02 4.42159986e+00</_>
    <_>
      1.47201202e+02 4.24760008e+00</_>
    <_>
      1.07471603e+02 2.00928001e+01</_>
    <_>
      1.34446793e+02 7.29479980e+00</_>
    <_>
      1.08648399e+02 1.83428001e+01</_>
    <_>
      1.00498001e+02 4.60579987e+01</_>
    <_>
      1.06598396e+02 2.74932003e+01</_>
    <_>
      1.03835602e+02 5.45720005e+00</_>
    <_>
      1.38924393e+02 2.68680000e+00</_>
    <_>
      1.27996002e+02 1.76711998e+01</_>
    <_>
      1.17118401e+02 1.23800001e+01</_>
    <_>
      1.04416000e+02 1.59935999e+01</_>
    <_>
      7.97556000e+01 5.93675995e+01</_>
    <_>
      1.02940399e+02 4.13563995e+01</_>
    <_>
      9.62460022e+01 1.44024000e+01</_>
    <_>
      1.19781998e+02 2.03764000e+01</_>
    <_>
      1.22283997e+02 2.54624004e+01</_>
    <_>
      1.28457596e+02 2.09528008e+01</_>
    <_>
      1.41098007e+02 1.69192009e+01</_>
    <_>
      1.31921204e+02 2.13780003e+01</_>
    <_>
      9.22900009e+01 4.52872009e+01</_>
    <_>
      6.64135971e+01 4.50279999e+01</_>
    <_>
      7.73899994e+01 5.35508003e+01</_>
    <_>
      1.08791199e+02 8.85960007e+01</_>
    <_>
      1.03740799e+02 1.63999996e+01</_>
    <_>
      8.29543991e+01 2.13495998e+01</_>
    <_>
      9.78339996e+01 5.93839989e+01</_>
    <_>
      1.16848801e+02 5.82463989e+01</_>
    <_>
      7.25095978e+01 2.86019993e+01</_>
    <_>
      7.69092026e+01 2.93687992e+01</_>
    <_>
      7.18331985e+01 3.27360001e+01</_>
    <_>
      6.35564003e+01 3.38300018e+01</_>
    <_>
      2.88096008e+01 3.85099983e+01</_>
    <_>
      7.38468018e+01 2.13379993e+01</_>
    <_>
      8.20596008e+01 1.62099991e+01</_>
    <_>
      9.34120026e+01 1.29216003e+01</_>
    <_>
      3.22960014e+01 2.31448002e+01</_>
    <_>
      1.81972008e+01 7.98020020e+01</_>
    <_>
      1.98363991e+01 7.43063965e+01</_>
    <_>
      1.78491993e+01 5.61815987e+01</_>
    <_>
      1.94111996e+01 4.82732010e+01</_>
    <_>
      7.57999992e+00 1.84988003e+01</_>
    <_>
      1.17476799e+02 1.23171997e+01</_>
    <_>
      9.20108032e+01 1.44491997e+01</_>
    <_>
      7.09400024e+01 2.12488003e+01</_>
    <_>
      2.84379997e+01 4.41528015e+01</_>
    <_>
      1.68472004e+01 6.24059982e+01</_>
    <_>
      1.88495998e+01 4.31024017e+01</_>
    <_>
      8.70800018e+00 1.86576004e+01</_>
    <_>
      1.24231997e+01 1.86812000e+01</_>
    <_>
      6.60559988e+00 1.91756001e+01</_>
    <_>
      6.83519983e+00 1.98068008e+01</_>
    <_>
      7.93583984e+01 1.82108002e+01</_>
    <_>
      1.17655197e+02 1.25075998e+01</_>
    <_>
      1.73143997e+01 4.35312004e+01</_>
    <_>
      2.86527996e+01 2.31863995e+01</_>
    <_>
      74. 3.02015991e+01</_>
    <_>
      7.44023972e+01 2.54671993e+01</_>
    <_>
      7.40752029e+01 3.36896019e+01</_>
    <_>
      7.64731979e+01 3.12199993e+01</_>
    <_>
      7.02164001e+01 2.18479996e+01</_>
    <_>
      7.28667984e+01 1.77080002e+01</_>
    <_>
      7.42603989e+01 1.42416000e+01</_>
    <_>
      7.60391998e+01 1.34312000e+01</_>
    <_>
      7.61704025e+01 1.19476004e+01</_>
    <_>
      7.15680008e+01 1.31680002e+01</_>
    <_>
      2.91812000e+01 2.16383991e+01</_>
    <_>
      8.25167999e+01 2.00615997e+01</_>
    <_>
      1.10830399e+02 1.33512001e+01</_>
    <_>
      1.75235996e+01 7.68527985e+01</_>
    <_>
      1.78796005e+01 3.88852005e+01</_>
    <_>
      1.01702797e+02 4.81136017e+01</_>
    <_>
      1.09128799e+02 5.44399986e+01</_>
    <_>
      1.13386398e+02 2.50795994e+01</_>
    <_>
      1.16019600e+02 1.30604000e+01</_>
    <_>
      3.69552002e+01 2.02504005e+01</_>
    <_>
      1.68064003e+01 4.67592010e+01</_>
    <_>
      1.59376001e+01 3.10275993e+01</_>
    <_>
      9.31879997e+00 2.39272003e+01</_>
    <_>
      1.75324001e+01 2.48952007e+01</_>
    <_>
      9.54380035e+01 5.49379997e+01</_>
    <_>
      1.12880402e+02 2.65972004e+01</_>
    <_>
      1.13799599e+02 2.23423996e+01</_>
    <_>
      1.18718803e+02 1.18227997e+01</_>
    <_>
      7.66775970e+01 1.10296001e+01</_>
    <_>
      1.54771996e+01 1.75848007e+01</_>
    <_>
      8.81240005e+01 4.52672005e+01</_>
    <_>
      1.16472397e+02 9.14000034e+00</_>
    <_>
      4.26767998e+01 1.47332001e+01</_>
    <_>
      7.53580017e+01 4.42739983e+01</_>
    <_>
      1.07203598e+02 6.86324005e+01</_>
    <_>
      1.11560402e+02 3.57967987e+01</_>
    <_>
      1.15329201e+02 1.66168003e+01</_>
    <_>
      5.68535995e+01 4.14347992e+01</_>
    <_>
      1.06662003e+02 7.86055984e+01</_>
    <_>
      1.11715599e+02 2.98439999e+01</_>
    <_>
      1.21279999e+02 1.03732004e+01</_>
    <_>
      4.60176010e+01 4.10676003e+01</_>
    <_>
      1.08953598e+02 4.93296013e+01</_>
    <_>
      1.10865601e+02 3.31651993e+01</_>
    <_>
      1.14940002e+02 2.39916000e+01</_>
    <_>
      1.14679604e+02 1.19435997e+01</_>
    <_>
      1.18603600e+02 7.74280024e+00</_>
    <_>
      1.27300797e+02 1.09944000e+01</_>
    <_>
      1.15801598e+02 1.45763998e+01</_>
    <_>
      1.02991600e+02 9.46348038e+01</_>
    <_>
      1.09113602e+02 3.38944016e+01</_>
    <_>
      1.11749199e+02 2.32071991e+01</_>
    <_>
      1.17297997e+02 1.25288000e+01</_>
    <_>
      1.04080002e+02 8.31856003e+01</_>
    <_>
      1.06112000e+02 9.24359970e+01</_>
    <_>
      1.08174004e+02 4.06391983e+01</_>
    <_>
      1.09641998e+02 3.02168007e+01</_>
    <_>
      1.14449997e+02 1.43400002e+01</_>
    <_>
      1.07797203e+02 4.48391991e+01</_>
    <_>
      1.09442398e+02 3.22224007e+01</_>
    <_>
      1.09721199e+02 2.79967995e+01</_>
    <_>
      1.09112000e+02 3.65155983e+01</_></support_vectors>
  <decision_functions>
    <_>
      <sv_count>1754</sv_count>
      <rho>-4.7949519234148780e-01</rho>
      <alpha>
        5.0001331674955096e-01 4.7432008001015386e-01
        4.7382789019135069e-01 1. 1. 6.1818452705153515e-03
        4.6974896622930801e-01 4.8169770932936951e-02
        4.6891257749749504e-01 4.1534171978448287e-01
        4.4728085170456022e-01 4.6821805646691284e-01 1. 1.
        4.2734210718033772e-01 6.2098855434504407e-01 1. 1. 1.
        4.6815213735809974e-01 4.6492674923176541e-01
        4.3332038568948211e-01 6.2762009797427909e-01 1. 1.
        4.6532729821697005e-01 4.6532145439932449e-01
        4.6520380057047178e-01 5.7573257204024220e-01
        4.6444572098719361e-01 4.6883540286448167e-01
        4.7989596146449920e-01 4.6413454114906860e-01
        7.4879498021212931e-01 4.6048715393443762e-01 1.
        4.6271737732069312e-01 5.6547733979044268e-01
        8.7086960978862482e-02 7.5505208492016440e-01
        5.3244876591813783e-01 1. 4.9526164519872862e-01
        5.6210021526081710e-01 6.8867435326500459e-01
        4.9019335461774632e-01 6.6809721545188661e-01
        5.3762754153215320e-01 1. 4.8694441466751054e-01
        4.6388485685441733e-01 1. 4.2271384280493440e-01
        4.9434415155533840e-01 5.8976833929184669e-01
        4.1629975616620402e-01 1. 4.8962856551524142e-01
        4.5162113783978275e-01 5.4258170939323003e-01
        5.3394482906853225e-01 5.5271914829543978e-01 1. 1.
        4.6294542043388193e-01 4.6289495804104819e-01 1. 1. 1. 1. 1.
        4.1266643668532743e-01 1. 5.2853684769583154e-01
        4.9501238778205597e-01 4.6081868437896278e-01
        4.5803919260097048e-01 1. 1. 1. 1. 1.8362705197753937e-01
        4.3313700268119726e-01 4.7237291427635131e-01
        5.2069525688715124e-01 4.7930474311284882e-01
        4.7779403389245395e-01 5.8809410023520237e-01
        6.0077444003064739e-01 4.5859075706762981e-01
        4.7368724275999519e-01 1. 5.6874615363112413e-01
        4.8650379238114161e-01 1. 1.4462293349412458e-01
        5.8199280401409581e-01 4.4696561159670145e-01
        7.5367650783406592e-01 4.9341557646016992e-01
        4.2656979896996217e-01 4.1984519230982464e-01 1.
        4.1025412717158305e-01 5.2349120619814848e-01
        1.8572870697568966e-02 4.8175200117951950e-01
        4.3415375338359263e-01 4.9447391634633686e-01
        1.0566862806790756e-01 7.3051330116723356e-01 1.
        4.7653838086474903e-01 5.1262227394986859e-01
        5.3891785224282063e-01 1. 5.3065659534438803e-01
        4.1502102052931567e-01 1. 4.2344072550639955e-01 1.
        4.2930783360886438e-01 5.1475783596743763e-01
        4.6954187573172923e-01 1. 1. 4.8508213585582116e-01
        5.7224762671471141e-01 4.6237245846784680e-01 1.
        4.9579440156164312e-01 5.0854800612999540e-01 1.
        5.8277083818523190e-01 7.1155292367186773e-01
        4.5408614797850733e-01 4.5496242739936943e-01
        4.7498025342875272e-01 4.2370056588690164e-01
        4.7825449684207727e-01 1. 1. 6.1019326367462290e-01 1.
        4.9173529309738534e-01 4.9614713252833620e-02 1. 1.
        5.6892509847927264e-01 4.9249124603041761e-02 1. 1.
        4.9308766568809276e-01 4.3817634951587309e-01 1.
        4.7953376430889605e-01 1. 1. 1. 4.9958274731495833e-01 1. 1. 1.
        1. 1. 4.7618079030490668e-01 1. 4.5379180125506341e-01 1.
        5.6986041796789455e-01 5.0748591119165110e-01
        5.3979217419142178e-01 1. 1. 1. 1. 1. 1. 1. 1. 1.
        4.5324097815636927e-01 4.5181196789739503e-01 1.
        4.7646163733895808e-01 5.0994291965844651e-01
        4.5135840447379677e-01 5.6012628700523936e-01
        4.6014806022751409e-01 5.3730004298021161e-01
        5.0839929007932172e-01 5.0621974150845839e-01
        4.7523085810983634e-01 5.5807141277240579e-01
        4.8647298288468960e-01 5.5656597485291948e-01
        6.5764682618588133e-01 5.8205914092806699e-01
        6.8280558286032145e-01 4.8524216403256243e-01
        4.1278236004739921e-01 4.9808684297882944e-01 1.
        4.5195385206933425e-01 4.5177283199764612e-01
        4.5128868618693674e-01 4.5118755331005683e-01 1.
        4.5086687922266433e-01 4.4969260909048792e-01 1.
        4.6294078397622090e-01 4.3058584507029041e-01
        5.2477654352315939e-01 4.8082155449392422e-01
        1.1517716505424125e-01 1. 1. 4.3687651178076714e-01
        6.8609939425957767e-01 1. 4.4087809059126976e-01
        5.4924981555011787e-01 4.5515275715899439e-01 1.
        4.8174764104463380e-01 1. 4.4970989739005579e-01
        4.4237751986275820e-01 5.0878366397410768e-01
        4.9223380337297884e-01 4.7607828500680288e-01
        4.5866143404114545e-02 4.4962685335681707e-01
        7.3373467478907550e-01 1.2007219276079395e-02
        4.7159859686475208e-01 4.9255621455064197e-01
        4.7902600231775139e-01 1. 4.8354351283760560e-01
        4.8373640509800514e-01 4.2259627613067330e-01 1. 1. 1.
        4.7616387607800537e-01 5.7651504961376243e-01
        5.2350390490314258e-01 6.3968955273425365e-01 1.
        5.4973765937073993e-01 5.0697932218505304e-01 1.
        4.2120006110011049e-01 1. 1. 4.7650879380185146e-01 1. 1. 1. 1.
        4.5250521843268421e-01 4.9291035722413840e-01
        4.7565224417263352e-01 9.6832051278459619e-01 1.
        4.4865301127619622e-01 4.4764964395648987e-01
        5.4710649058372163e-01 5.0030728073078623e-01 1. 1.
        4.8008695178673449e-01 1. 1. 1. 1. 1. 1. 1.
        6.2625370493103383e-01 4.9158229758344740e-01
        4.4617284478681857e-01 4.8245092894824571e-01
        4.4876290405932712e-01 4.9162269016375726e-01
        5.5369563980179293e-01 4.7585541079895666e-01
        5.2174550315792279e-01 4.9531898696741489e-01 1.
        4.6605517093146775e-01 4.6919621031572789e-01
        4.5414825877030329e-01 5.0708964277586155e-01
        5.7579498238717686e-01 4.5685889014038134e-01
        4.9064609683033561e-01 1. 5.1455176412867987e-01
        4.4410385474874581e-01 4.7776231891207221e-01 1. 1.
        5.1917844550607573e-01 1. 4.4411773316952191e-01
        4.4247508400648389e-01 4.7485557238490850e-01
        5.2193426288976175e-01 5.0468101303258517e-01 1. 1.
        5.0758981895626798e-01 4.4250041142715457e-01
        5.4144455998361440e-01 1. 1. 1. 1. 1. 5.3985193977248591e-01
        4.7274841353760444e-01 4.9123377468468471e-01 1.
        4.4051337588212974e-01 4.7373477640063694e-01
        4.3964567191612902e-01 4.9543656617327864e-01 1.
        5.3705921602377904e-01 1. 4.3401795127261478e-01
        4.3689648210700338e-01 4.6342940321457443e-01
        4.3624609438082612e-01 4.8011467673071906e-01
        4.3580718255183648e-01 1. 5.6118631221175463e-01 1. 1.
        4.6934340465561192e-01 4.3443551357374932e-01
        5.4993964146120877e-01 1. 4.6744226186005056e-01
        6.3193652571903858e-01 4.6108214775717943e-01
        4.3469229528926806e-01 7.2720715648643941e-01
        6.6499966808427358e-01 4.7592580330957840e-01
        6.7028924201290485e-01 4.3396292794851776e-01
        4.6100542054194599e-01 1. 5.4061941647167211e-01
        5.0841770241655260e-01 1. 6.2103315740883880e-01
        5.6385309634500236e-01 4.6426072304720017e-01
        4.3322397882031838e-01 1. 1. 4.9145199387000466e-01
        6.2019110791213927e-01 4.5872940439462528e-01
        6.3744019162546495e-01 4.1834716023233331e-01
        5.3632188002930914e-01 4.1458839738340686e-01
        5.1346163071225037e-01 6.6464766451801860e-01 1.
        5.4494808536111883e-01 4.3145639471823555e-01
        5.3599628819694201e-01 4.3616982366956253e-01 1. 1.
        3.4408865058784155e-02 1.2188667002278863e-01
        5.2039776224566292e-01 5.2559211489036062e-01
        6.7629795006704019e-01 4.5439353595443299e-01
        4.4045369416072649e-01 4.9087686018848276e-01
        5.1824799882048045e-01 2.9439803942971332e-01
        5.0071557563140123e-01 1. 1. 1. 1. 1. 1. 8.3124430773412361e-01
        1. 1. 1. 5.4864159552620317e-01 4.5138056619235212e-01 1.
        4.8563958208799896e-01 5.5588418062737710e-01
        4.7537157805236435e-01 1. 1. 1. 1. 1. 1. 1. 1.
        4.8340200976090408e-01 1.4584565721583020e-01
        6.6552362341148508e-01 4.9542683259151971e-01 1. 1.
        5.2473217874483125e-01 4.9194279626145149e-01
        4.7960382267504870e-01 1. 5.0658442353983002e-01
        4.6188522695683470e-01 1. 1. 5.2383612392199463e-01 1.
        4.7348171151756180e-01 4.5905922187077863e-01
        5.7740372386932670e-01 4.9251408880834890e-01
        4.5560809686994164e-02 1. 7.3249950653450524e-02
        5.1991304821326545e-01 4.7731814188078148e-01
        4.2651659165890532e-01 4.5687281668058910e-01 1.
        4.6096152061324513e-01 4.7679726916233428e-01
        4.7322393865258849e-01 4.7257934999235973e-01 1.
        4.8899950862050567e-01 4.1668188330922395e-01
        5.0912313981151724e-01 7.4722844644758224e-01
        6.6408021902729286e-01 1. 4.9321947136178801e-01
        5.2434775582736648e-01 1. 1. 1. 4.8572639389023242e-01
        5.1349620761885839e-01 5.1934746394548748e-01
        5.3080378968427211e-01 1. 4.7440788510963938e-01 1. 1. 1.
        4.9197861086527461e-01 1. 4.3107490152072736e-01 1. 1. 1.
        4.6888641495944916e-01 5.7879993889988945e-01
        4.2716280930896577e-01 1. 1. 4.3337949005099180e-01 1.
        6.9522821220898079e-01 5.2097399768224861e-01
        4.3275954004311223e-01 7.4091079861493792e-01
        6.4343541500260115e-01 5.7401341729789834e-01 1.
        5.0098861102695014e-01 1. 5.8575068464108437e-01
        4.3163751837163394e-01 5.3629063018044887e-01
        4.3251478310146230e-01 4.5766867336760414e-01
        8.3708706103155706e-01 4.6800850663143034e-01 1.
        4.7398478227576735e-01 1. 7.0812498104902266e-01
        4.7863464990094517e-01 4.5884658989605814e-01
        4.9563490366345542e-01 5.0448881953125357e-01
        6.4829096039035150e-01 7.4529928357068431e-01
        7.1068035933784057e-01 4.2555173611426311e-01
        8.2957382071114605e-01 4.3355817313616252e-01
        4.7484161719962870e-01 4.8944845301875306e-01
        4.1913097212504929e-01 8.2955855183796379e-01
        8.2673524988281089e-01 4.2720143559491691e-01
        5.3199149336856966e-01 1. 8.2571093488122638e-01
        5.3390895913876579e-01 8.2485671407451799e-01
        8.2405013525959214e-01 5.2631275724000481e-01
        8.2165257204773279e-01 4.5741829060676997e-01 1.
        4.1176783567591413e-01 7.5245476192226290e-01
        5.5868275717967886e-01 4.2426742795975775e-01
        4.7806573711023825e-01 8.2044454655376065e-01
        5.2003539338681093e-01 1. 5.6667961431051794e-01 1. 1.
        4.9803300701413100e-01 5.3748581183510435e-01
        4.8966988351866370e-01 6.0195351687582865e-01 1. 1.
        4.7666749490572780e-01 6.1040014282029142e-01 1. 1. 1. 1. 1.
        5.3045812426827077e-01 4.7538299624527180e-01
        4.1758253872479500e-01 1. 6.7935992566315895e-01
        4.8683124870528077e-01 4.3881368778824537e-01
        5.2651828848243820e-01 5.2904003588664983e-01
        5.0041725268504167e-01 4.7793662622583549e-01
        8.1956512015274452e-01 4.1035571097504453e-01 1.
        5.0065905072343941e-01 1. 4.3551953847457714e-01 1. 1.
        4.6092002514128338e-01 4.8674773621798600e-01
        7.0560196057028668e-01 8.1637294802246063e-01
        4.8205509242602274e-01 1. 1. 4.8245421637872593e-01
        4.6521726831347665e-01 1. 5.5703037870974370e-01
        5.0319664344347581e-01 1. 5.1645648716239445e-01
        4.9675573207673418e-01 1. 1. 5.2933768198427633e-01 1.
        5.1374365080674389e-01 4.9302067781494696e-01
        2.6224336627208689e-02 8.0839569524412647e-01
        8.0796711551959199e-01 4.8108691127465669e-01
        8.0044326779859754e-01 4.7450369574722367e-01
        4.9619653324335655e-01 1. 5.5123709594067294e-01
        4.7682349079027364e-01 4.8323109674820119e-02
        5.8385420332100857e-01 1. 7.9948142319559556e-01 1.
        6.6697032797792954e-01 1. 4.2420501761282309e-01
        4.8205844416081794e-01 5.0552608365366314e-01 1.
        5.7055075194464755e-01 1. 4.8653836928774963e-01 1.
        4.4838597119357532e-01 1. 4.7757721826729582e-01 1.
        4.8803972057838596e-01 4.6641806110093492e-01
        4.4150524053773743e-01 5.4115341010394191e-01
        7.4357356705895050e-01 7.5559240595441701e-01
        5.2762708572364869e-01 7.9416849047276983e-01
        4.3939599789088313e-01 1. 1. 4.8036866543088491e-01
        4.3752781268325092e-01 1. 4.4113110742033512e-01
        7.9366595094655779e-01 7.9233492610356260e-01
        5.0538255747424776e-01 7.4013111073911242e-01
        4.7675544091685723e-01 1. 5.2857997747782881e-01
        7.2674196908041677e-01 4.9998668325044904e-01 1.
        4.8417837063684255e-01 6.2473259722801289e-01
        7.0845301795142190e-01 1. 7.9150091792156863e-01
        6.0747423511018050e-01 4.3789978473918290e-01
        4.7513850946043085e-01 4.3987371299476064e-01
        4.3013958203210551e-01 4.9256512189571122e-01
        5.7629943411309836e-01 7.8138641663315878e-01
        7.8021310223153795e-01 7.7929317235298168e-01
        4.7217538985245194e-01 1. 6.2253706844905010e-01
        7.7894886714227574e-01 4.4457295716774431e-01 1.
        4.5266104611830227e-02 4.6437792568539726e-01
        4.8140739216354450e-01 5.8241746127520500e-01
        4.9513709658726274e-01 5.3456903849124426e-01
        5.1988532326928094e-01 1. 1. 1. 6.6881819125552200e-01
        6.2841279406807216e-01 4.5006035853879128e-01 1.
        4.7960223775433708e-01 1. 4.6653315454329142e-01
        5.5542704283225564e-01 1. 1. 5.0946415277654877e-01
        6.5344311563175939e-01 1. 4.6400371180305794e-01
        4.7229575793994594e-01 4.7467947150359774e-01 1.
        4.5662938042329931e-01 5.6941415492970959e-01
        4.4544539285207735e-01 4.1350681878541923e-01
        5.2532531568373453e-01 4.7912463488367735e-01 1.
        4.9948096676397841e-01 6.5402083186775051e-01
        6.5452193269413628e-01 4.9433718796550624e-01
        7.7848895376377403e-01 1. 4.0970751153822049e-01
        6.0488788822149708e-01 7.7752010557979179e-01 1.
        1.4634705687631255e-02 4.7649997044396214e-01
        5.0832609763754044e-01 7.4467281698358845e-01
        4.5505191463888123e-01 7.7796297956001847e-02
        4.9515414358793719e-01 6.3919573866196833e-01
        4.2756388469484952e-01 1. 5.0678052863821199e-01
        4.7457008509205156e-01 1. 1. 4.7095996411335023e-01
        4.3594768825137381e-01 4.9053584722345123e-01 1.
        6.4808075609295157e-01 1. 1. 6.7210724008941281e-01
        4.7430700174036350e-01 4.3125384636887587e-01 1.
        5.3198031736988993e-01 1. 5.1325226378201405e-01 1.
        5.1794490757397726e-01 4.7387000423074660e-01
        4.9388241310329273e-01 5.0776619662702116e-01 1. 1. 1. 1. 1. 1.
        1. 1. 1. 1. 1. 1. 1. 1. 4.9363000121498340e-01
        4.9030105246106026e-01 4.3065027774001441e-01
        4.7656028372861414e-01 9.7520220972014027e-01
        4.9239691122030471e-01 5.7347555151016494e-01
        5.6448046152542286e-01 1. 4.9125538115272394e-01 1. 1.
        4.5487384642016704e-01 4.7588859379649656e-01
        4.3473532633973122e-01 1. 1. 1. 1. 4.8584097869859144e-01 1. 1.
        1. 4.4192858722759415e-01 1. 1. 4.9392072816888677e-01 1.
